regulates	-0.0237291	-0.0632966	-0.0277741	-0.0503738	0.0232219	0.0261003	-0.0336221	-0.0332617	0.0259198	0.03898	0.0200213	-0.0041545	0.00168039	0.0315574	0.0272816	-0.0371378	-0.0546211	-0.0217842	0.0646829	0.0357044	-0.0583694	-0.0459626	0.0365002	-0.10746	0.0312092	-0.0736381	-0.00442178	0.0548206	0.040531	-0.0861392	-0.0632194	-0.0641911	0.0662358	-0.0336392	0.01103	-0.0624041	0.0892004	0.00324887	0.00918061	0.0391799	-0.0200934	-0.0263739	-0.061734	0.0243332	-0.0377163	0.0382574	0.0382151	0.0440245	-0.0386941	-0.0685423	-0.0147025	-0.00671373	0.0635977	-0.0422596	-0.0539398	0.030357	-0.0955684	-0.0391393	-0.0315416	0.0435201	0.00654826	-0.00859124	0.00874664	0.0331142	0.0897703	0.0173148	-0.0262047	0.00157599	0.0384689	0.0608768	0.0140949	-0.00449127	-0.0424715	0.0308777	-0.058078	-0.116059	-0.0152045	0.0901181	0.0168399	0.0638761	0.0298327	0.0815239	-0.00925587	-0.00516256	0.0315281	0.0158856	0.0216941	-0.0582594	0.0152288	0.0065162	-0.0493512	0.0165276	-0.00511277	0.00968653	0.0421928	-0.0114271	0.0262656	0.0237824	0.0662483	0.00158318
regulated_by	0.0256518	0.0625518	-0.00955017	0.0284538	-0.0384179	-0.0233771	0.0191995	0.00187917	-0.0249172	-0.0156777	6.8185e-05	-0.0164549	0.0276487	-0.0226431	-0.0110167	0.0429448	0.0750414	-0.0158228	-0.0586805	-0.0305223	0.00330367	0.0217786	-0.0138663	0.0668329	-0.0207893	0.0542401	0.00725878	-0.037353	-0.0318771	0.0651852	0.019373	0.0128931	-0.0241272	0.0212532	0.0036189	0.0538874	-0.0529842	-0.0389328	-0.0220232	-0.0392412	-0.00437464	0.0221796	0.0366792	-0.0117105	-0.0255894	-0.00662877	-0.0577713	-0.0241753	0.0156774	0.0695211	0.0383263	0.00690985	-0.0472148	0.0372429	-0.0132095	-0.0221976	0.0433001	0.0460212	0.0220723	-0.0539683	-0.000920037	-0.0229885	0.00353254	-0.0117857	-0.0690257	0.0164155	0.000413432	0.000388378	-0.0254368	-0.0239089	-0.0191772	0.0126192	0.0145349	0.0109854	0.0636068	0.0533047	-0.00573881	-0.0533897	-0.00811545	-0.0606281	0.0182946	-0.045808	-0.00708133	-0.00375583	-0.0223633	-0.00332715	-0.00146695	0.0560891	0.00951036	-0.0189057	0.0395566	0.000504088	-0.0151647	-0.0207352	-0.0483978	0.0161369	-0.0231123	-0.00132133	-0.035819	0.0286395
positively_regulates	-0.0513961	-0.0442496	-0.0450741	-0.0816943	0.0501887	-0.0165515	-0.00987276	0.0357483	0.0661979	0.0839981	-0.0149736	-0.0447801	0.0275336	0.00328838	0.00753077	0.000785932	0.0670005	-0.0996242	-0.0380054	0.0284305	-0.0282502	-0.0327098	0.038615	-0.0476694	-0.0589968	-0.017567	0.0233946	-0.0686069	0.0701936	-0.0705743	-0.0137262	-0.0513851	0.084962	-0.071186	0.0249144	-0.101127	0.0612584	0.0698925	-0.0801306	-0.0311272	-0.0214198	0.0275375	-0.00067132	0.143678	-0.0657685	0.150848	0.0505507	0.0641039	-0.111511	-0.134811	0.0272476	0.0858845	0.0518664	-0.047	-0.0934595	0.112632	-0.0719229	-0.0543212	0.0165056	0.0472864	0.0312551	-0.0476127	0.00984699	0.0562537	0.0745739	0.0123219	-0.0511877	0.00579578	0.0141104	0.0488345	0.0126079	-0.0477111	-0.0542681	0.0583617	-0.103836	-0.0193308	-0.00711346	0.095928	0.0532471	-0.0219518	-0.0261279	0.192551	-0.0960658	-0.0562766	0.00527161	0.0236066	0.0483955	-0.0961455	-0.00691354	0.00899638	-0.0457354	-0.0330163	-0.0398398	0.0470807	0.107624	-0.00912754	-0.0216973	-0.0204012	-0.015494	-0.020387
positively_regulated_by	0.0399204	0.00110605	0.00175789	-0.0116156	-0.0842065	0.0123496	-0.0306004	-0.00615996	-0.0312252	0.0437352	-0.0440508	-0.0185521	-0.0230993	-0.0408852	-0.00392697	0.103009	-0.0117978	0.0552882	-0.0417416	-0.0381017	-0.00283669	0.040451	-0.0327097	0.0154728	-0.0198962	0.0914877	0.099317	-0.0145069	-0.0807636	0.105253	0.0917431	-0.0555715	0.0524981	-0.0141724	0.0349324	0.0390826	0.0780915	-0.0754046	0.0249939	-0.00146028	0.109227	0.0509189	-0.0224763	0.0421556	0.0827865	0.0449976	0.0326164	-0.0224095	-0.121669	0.0355647	0.0527146	0.04434	0.00242483	-0.0254848	0.108931	0.0124051	0.0949135	0.0281591	-0.106084	-0.0206269	-0.0623135	-0.0248989	-0.00738464	0.0607514	-0.0504815	0.0299782	0.0453025	-0.0093618	-0.0423431	-0.0185932	-0.0243149	0.0832358	-0.0323254	-0.0789384	0.0484152	0.0336184	0.0495852	-0.0727032	0.054991	-0.0545967	-0.0285247	-0.00160424	0.00617967	0.0570965	0.00986313	0.0487631	0.00197963	0.161165	0.0121534	0.025373	0.0212539	0.0208191	-0.025604	-0.0289024	-0.109866	0.0589893	-0.0167009	-0.0640395	0.0194061	-0.00456432
negatively_regulated_by	0.0828352	0.0452379	0.0532512	0.0606382	0.0307672	0.00769366	0.022341	0.00750674	-0.03799	-0.0651835	-0.0247114	-0.060881	-0.0412585	-0.0070853	-0.0168879	0.132832	0.0405185	-0.138238	-0.0204141	-0.025874	0.0184279	-0.00724004	-0.0825088	0.0470085	-0.0105684	0.105622	-0.0449068	0.0552315	-0.0933664	0.159725	0.0462418	-0.0580549	-0.000335375	0.0224863	-0.0848423	0.00780365	-0.0909645	0.013042	-0.0480159	-0.0812191	-0.0124865	-0.00908759	0.114669	-0.00293719	0.0224013	-0.00832686	-0.0655833	0.0163608	0.0715968	-0.0166183	-0.023163	-0.0364079	-0.168319	-0.0397128	0.0234702	-0.0960865	0.0159981	0.0171813	0.0534623	0.0414139	0.0394334	-0.0255025	0.0127075	-0.0348828	-0.00583916	-0.0072563	-0.063359	0.0221157	-0.0334798	-0.0252873	-0.0109145	-0.0468371	0.0336809	-0.00814144	0.0431389	0.03517	-0.100756	0.0844383	0.0709547	-0.0581947	0.0387098	-0.0349778	0.089625	0.00868687	-0.0226902	-0.0429677	0.00860913	-0.0635059	-0.00411506	0.000716645	0.0905921	-0.0255837	-0.085265	-0.0516574	-0.00602789	-0.0362896	0.0955577	-0.0173343	-0.100725	0.0900777
negatively_regulates	-0.00306649	-0.0125981	-0.0554079	-0.0132612	-0.0301214	0.0629814	-0.101798	-0.0421976	0.0992509	-0.024908	0.0256831	0.0219309	0.035475	0.0491963	0.0180687	-0.0434934	-0.0289796	0.0909427	0.0615306	0.00997606	0.0910599	0.0197701	0.10647	-0.082549	-0.0335347	-0.0785987	0.0438501	0.0854611	0.0984621	-0.0359048	0.0484658	-0.0709506	0.0216791	0.0197185	-0.0302239	-0.0783403	0.126805	0.0221138	0.0314109	0.211186	-0.0448183	-0.00940327	-0.0379275	-0.0623927	-0.0201595	0.103679	0.0257185	0.139245	-0.0244571	-0.0341105	-0.0625553	-0.0081249	0.0229788	0.0235523	-0.0613012	0.0423562	-0.0318849	-0.0631156	-0.0119915	0.0279141	0.110578	0.0725351	-0.0635516	0.0887906	0.173161	0.0481095	0.040064	0.0263421	-0.0412166	0.0298541	0.0493344	-0.0169339	-0.0873789	-0.028523	-0.0427571	-0.154539	-0.037722	-0.0399976	-0.0414939	0.117749	0.0444243	0.00649196	-0.0230235	0.0809788	0.0231654	0.0690456	0.0462919	-0.0197446	0.090082	-0.0919019	0.0107997	-0.0601675	0.0825369	0.0650095	0.0223979	0.00665005	0.0800609	0.0637659	0.0171079	0.0888692
crp	0.0763049	0.0896556	0.0629491	-0.00634016	-0.0184908	-0.0176352	-0.0353044	0.0443067	0.134411	-0.0256939	-0.0717445	-0.013936	0.115569	0.0219564	0.0155993	0.0875401	0.000700561	0.0456593	-0.0509491	-0.0550167	0.0396086	0.0152546	0.0183414	0.0835527	-0.040544	0.0801859	0.037949	-0.0236553	-0.0700832	0.0398526	0.0595663	0.0477142	-0.0739113	0.153765	0.0348667	0.00864906	-0.0985927	-0.0741345	0.0714329	-0.0444686	0.126461	-0.0411493	0.0756381	0.00925693	0.0240959	-0.114183	-0.00867985	-0.0749228	0.109046	0.121618	0.0132079	0.00878636	-0.0121165	0.108098	0.123326	-0.0605105	0.0734597	0.157986	-0.0431891	0.0218156	-0.0484652	0.028137	0.1013	-0.0252351	-0.0515833	-0.12051	-0.0727882	0.0473184	-0.00086969	0.0250252	-0.00439875	0.0420306	0.0636702	0.0440739	-0.0176849	0.166763	-0.0184602	-0.0668007	0.00284563	0.0410204	-0.0519817	-0.0873004	-0.0554212	0.0946879	-0.0669331	0.00850034	0.0145609	0.196836	0.0685945	0.0504181	0.00792688	-0.0134973	-0.018461	0.011688	-0.00816084	-0.0230309	-0.120381	-0.0937349	-0.00455521	0.0301769
ihf	-0.0140668	0.0154043	-0.0504685	0.146622	-0.112139	-0.0412761	-0.0074962	0.0167671	-0.00957267	-0.106034	0.0256991	0.0223129	-0.0348603	-0.0967903	0.0696466	-0.0204939	0.123765	0.0507915	-0.0767209	-0.124022	-0.0207047	0.094293	-0.0966732	0.140611	0.0142494	0.0708619	0.061218	-0.0470145	-0.177532	0.107068	0.0412182	0.0846785	-0.0402293	0.072337	-0.0044695	0.127376	0.0184865	0.0846206	0.00515463	-0.00590097	-0.00343169	0.0286844	-0.0687627	0.00528947	-0.0893646	-0.0143225	-0.0294618	0.0203987	0.0835483	0.12204	0.107688	-0.0182586	0.0152037	0.0561006	0.061498	0.0179931	0.0826554	0.110569	0.0274819	-0.0410814	0.0214408	0.0552354	0.150751	-0.0181926	-0.0664139	0.0500162	-0.0336615	0.0524499	-0.0252634	-0.0654602	-0.0520003	0.0963395	0.130195	0.0600441	0.0144882	0.11011	0.0139913	-0.0681444	0.0162027	-0.00901017	-0.082225	-0.0304313	0.0110023	0.0767552	-0.0406147	0.0979743	0.000734231	0.068804	-0.105186	0.0464402	0.00522061	0.044482	0.0307523	-0.0337971	-0.0400008	0.0328072	-0.0614713	-0.0405762	-0.0177076	0.0755022
fis	-0.05486	0.0718553	-0.0400066	0.0125306	-0.147619	0.0117278	0.00998959	-0.108156	0.0176106	-0.0923454	-0.0213467	-0.0228507	-0.0679452	-0.150806	-0.0478336	0.0789772	-0.0581908	0.0234667	-0.0813179	-0.0206224	-0.0206854	0.0255632	-0.00585403	0.154105	-0.0281615	-0.0297936	0.0332952	0.0647948	-0.170975	0.0633508	0.0679248	0.0285908	0.0365535	0.0362895	0.0616221	0.0818755	0.0134047	0.028759	0.10239	-0.0349656	0.0328985	0.0149676	0.0274762	-0.0205659	0.0549673	-0.00499102	-0.0297821	0.0116758	0.0229409	0.0556135	-0.00285448	0.0191338	0.0493413	0.00468294	0.120175	0.0330261	0.0718643	0.163246	-0.0465701	0.00265505	-0.0171365	-0.0612196	-0.0694373	-0.137469	-0.211327	-0.0461205	-0.0632601	-0.0163101	0.0346833	-0.0337776	-0.0119756	0.00378973	0.021011	-0.0723022	0.0394828	-0.00394581	-0.0251231	-0.0771963	-0.0160399	-0.0573488	-0.0712614	-0.052143	0.0109566	-0.0223464	-0.0631107	0.060292	0.0932856	0.0764708	0.0365701	0.00127636	0.139782	-0.103202	0.0253692	-0.0312489	-0.183719	0.0731365	-0.0509421	-0.0516838	-0.15822	0.0548425
h-ns	0.0498342	-0.067805	0.0836005	-0.00771955	0.0524222	0.00754462	-0.0147041	0.0103915	-0.0355079	-0.0892167	-0.1438	-0.044255	-0.0664287	-0.0316093	-0.0967838	-0.0854635	0.0143964	0.00383119	-0.0340227	0.0635007	0.0647241	0.0807322	-0.0510452	0.0568218	0.0003932	0.0454453	-0.0115722	0.0584093	-0.0493708	0.19307	0.0624964	0.109347	0.055412	0.082598	0.0123133	0.00676922	-0.025279	0.0187393	-0.0719641	-0.022981	0.0572883	0.0710004	0.00239796	-0.0280957	0.0105862	-0.085512	0.00182518	-0.0393566	0.0999229	-0.0196098	-0.026644	-0.0140959	-0.067295	-0.142784	0.0763141	0.0142793	0.156515	0.111964	-0.0556923	-0.101497	0.0256155	0.0518413	0.0199912	-0.0421881	-0.152116	0.00554519	-0.0997048	-0.0706592	0.0585011	-0.0534351	0.0214215	-0.0377245	0.064948	0.0336515	0.0505315	0.186434	-0.00483769	-0.135479	0.0864081	-0.212637	-0.0894528	-0.0512588	-0.150131	0.00741669	0.00709758	-0.0031081	-0.107712	0.0918492	-0.0257472	0.0159126	-0.0192918	-0.0413288	0.0181731	0.0157888	0.000242576	0.107981	-0.151051	-0.000727304	-0.0484145	-0.0443299
phob	0.0997551	0.0638247	0.083143	0.0493668	-0.00905831	-0.15155	0.0165977	0.100687	-0.0266822	0.017758	0.00130916	0.0326606	0.0128823	0.00167843	-0.122718	0.0612826	0.0126452	0.090929	-0.0972714	-0.0119985	0.0309354	0.0283501	-0.0214245	0.086337	-0.0618849	0.0670804	0.0407325	-0.118476	-0.0107646	0.0899995	0.0042722	0.000482767	-0.0859158	0.058681	-0.0200614	-0.0520944	-0.135492	-0.0783046	0.0672487	-0.118966	0.00336734	-0.0484023	-0.00072896	-0.0241497	0.0888163	-0.0401934	-0.0646534	-0.0992349	0.0182523	0.142199	0.00415452	-0.113177	-0.116353	0.00276692	0.0894342	0.0207395	-0.0176076	0.0331467	-0.0366274	-0.0303002	-0.103753	0.0534737	0.0318692	-0.103794	-0.0829818	0.057995	-0.0249056	-0.0825756	0.00232224	0.0118789	-0.109526	0.0477141	0.0130338	0.00548291	0.103931	0.0712375	0.0336441	-0.0976051	-0.0475352	-0.0367592	0.0722655	-0.040098	-0.0415595	-0.0242734	-0.0124212	-0.00287002	0.013876	0.0403659	-0.0650563	-0.0523098	0.0804189	0.0610633	-0.0766657	-0.079369	-0.0213398	0.0248327	0.0753359	-0.000466681	0.0394578	-0.0272597
cpxr	0.0698299	0.0181209	0.00820952	0.0466262	-0.0091433	0.0460497	0.0882058	0.146572	-0.126956	-0.00160151	0.0453053	-0.0186855	-0.0906668	0.0587022	0.0806759	-0.00788141	0.0888485	0.0308813	-0.045564	0.00462356	0.0195155	0.0500428	-0.00481191	0.122599	-0.0904249	0.111932	0.0130064	-0.0557995	-0.0646543	0.0623902	0.0457373	-0.0847566	0.0399758	0.0359675	0.0625317	-0.0097085	-0.0641839	0.103146	-0.0257304	-0.0737251	0.0101183	-0.00117023	-0.0315676	0.067369	-0.0275481	-0.0737261	-0.0977617	0.0183987	0.0383847	0.10336	0.0817561	0.0639257	-0.0504662	-0.0037877	0.132042	-0.0484949	0.0658276	0.0718143	0.0317663	-0.0032226	0.0190405	-0.142931	-0.00352075	-0.0303763	-0.151688	-0.0449489	0.0567844	0.0867783	-0.0272025	0.0398537	-0.0520535	0.0839519	-0.000121581	-0.115348	0.034989	0.00865372	-0.0404459	-0.0499557	-0.0234781	-0.0567722	0.0420845	-0.101968	0.0453156	0.0132358	-0.0669143	-0.0476935	-0.0322308	0.0664799	0.00815717	0.0519007	0.0984294	-0.0619664	0.0686064	-0.175559	-0.0582477	-0.0263367	0.00818911	-0.111939	-0.104128	0.0368275
fur	-0.0344894	0.0289288	0.0219055	0.0886537	0.0459873	-0.193782	0.0553239	0.168587	-0.100521	-0.143054	-0.0314653	-0.0128852	0.0157981	-0.0121884	-0.0335203	-0.0194783	0.0362428	-0.0482568	-0.115249	-0.0154881	-0.0348783	0.00132193	-0.04026	0.19741	-0.00184644	0.0442238	-0.0175654	-0.00518205	-0.0320417	0.137168	-0.104008	0.166236	0.0681098	0.0493738	-0.109376	-0.0132541	-0.0156117	0.00456078	0.027419	0.0181668	-0.0389486	-0.0597615	-0.0266374	-0.0331143	0.0200462	-0.024806	-0.0335143	-0.0211939	-0.0313393	0.0412564	-0.0226083	0.078408	0.0538875	-0.0467962	0.0481301	-0.0878121	-0.00137303	0.0139425	0.0234966	-0.112318	-0.0399165	-0.107917	0.0907544	-0.0635814	-0.0775295	-0.0190684	0.0300868	0.0396079	0.166383	-0.0996705	-0.056524	-0.0163639	-0.0324604	0.027576	0.0357627	-0.00166862	-0.0918107	0.0247517	0.0426797	-0.183861	-0.161622	0.047129	0.0434469	-0.0127168	0.03935	-0.0995982	-0.126441	-0.0181376	-0.0790265	-0.0951404	-0.0303819	0.00451865	0.0296053	-0.0182917	0.0128304	-0.0767602	-0.0743251	-0.0589743	-0.0503141	-0.0206452
lrp	-0.0310614	0.0151305	0.112812	0.0233594	-0.150515	-0.0441908	0.0468018	0.0527765	-0.0902927	0.0366803	-0.0492346	0.0271652	0.0341442	-0.0258066	-0.130486	-0.0117248	0.0900286	0.0253898	-0.0312452	-0.0371633	-0.0767441	-0.00448229	0.0382649	0.133768	-0.0231904	0.0212961	-0.0814767	-0.0319018	-0.0417534	0.0647792	0.0270972	0.10123	-0.0457758	-0.0977246	-0.0464404	-0.0757024	-0.156841	0.155043	0.0281051	-0.057881	0.0113532	-0.0503087	0.124246	0.0696476	-0.0149281	-0.0357596	-0.0211444	-0.0713338	0.115884	-0.0428103	0.0248196	-0.0219947	0.0126167	0.0346735	0.0215299	-0.0263781	-0.0102282	0.156846	0.0289844	-0.0878831	0.0207833	-0.0935253	-0.0359241	-0.0541865	-0.094042	-0.0771043	-0.00029652	-0.0667976	-0.0403476	-0.0996856	-0.0570321	-0.0665679	0.0127451	0.0314009	0.0454715	0.181385	-0.0823606	-0.00618248	0.0341152	-0.00354664	-0.0907003	-0.0380011	0.0607788	-0.0774795	-0.0142976	0.00298099	-0.166661	0.0518591	-0.00726704	0.0117343	0.021041	-0.041353	0.0507503	0.0530802	-0.111769	-0.00595715	0.022174	-0.0096888	-0.0966603	-0.0125111
mode	0.05986	0.0695319	0.0158289	0.122921	-0.116821	-0.0780986	0.128891	-0.037461	-0.0339649	-0.103463	-0.0734726	-3.61495e-06	0.00738392	0.0161451	0.0640867	0.125467	0.0540622	0.0712086	-0.0602252	-0.0821391	0.210163	0.0342702	-0.0339219	0.0621938	0.106877	0.182499	-0.0917639	-0.150933	-0.0249443	0.071479	0.0577335	0.0107893	-0.0158258	0.0474756	0.0179433	0.20095	-0.090372	-0.028735	0.0501675	-0.0795885	0.0385267	0.0219666	-0.0137635	0.0101018	0.137795	-0.070872	-0.0415031	-0.0699073	0.169216	0.0681028	0.0116608	-0.0019243	-0.0133344	0.0540957	0.0830528	-0.0407958	0.093326	0.00378324	0.00739977	-0.101531	-0.05269	0.0123405	-0.00632079	-0.0821369	-0.130309	-0.0278992	0.0549023	0.024223	-0.018754	-0.181975	0.0899982	-0.00866416	0.048603	0.0286317	0.0657033	0.00644345	0.00280063	-0.0168979	0.0117391	0.0481858	0.0238397	-0.0592676	0.0260182	0.00657345	-0.0161923	-0.00668826	0.00677129	0.0350549	-0.0682501	0.0473086	-0.00119586	0.0394853	0.0006717	0.0125615	-0.0306687	-0.0242353	0.0935556	-0.0791606	-0.136579	0.0098923
flhdc	-0.00237061	0.000952598	0.0568995	0.144682	-0.0768115	0.042149	0.0423336	0.044992	-0.0535158	-0.0571494	0.0384758	0.0353721	0.00523654	0.00547229	-0.00620377	0.0556335	0.0703004	-0.00814658	-0.0149785	-0.0371709	-0.0208688	0.0413506	0.0160172	0.077439	0.0817324	0.0349361	-0.063171	-0.00074954	-0.0379179	0.0431316	0.0812528	0.101396	-0.0857503	0.0963065	0.0565539	0.039168	0.0466585	-0.0584789	0.0494834	-0.101971	-0.045937	0.051431	-0.0234913	-0.198176	0.0179178	-0.0700761	-0.0662428	-0.0288938	0.148505	0.104949	-0.155273	-0.0956135	-0.236879	0.0288891	0.124202	-0.112033	0.0989166	-0.00278773	-0.0248054	0.0218827	-0.0306741	-0.011725	-0.0364172	-0.126738	-0.0674825	-0.0151064	0.108346	-0.00307589	-0.0106799	-0.0887157	0.0630872	0.00240843	0.0466477	-0.00306189	0.00111243	0.0852148	0.0050083	-0.12682	-0.0494717	0.103071	-0.0323738	-0.157553	0.117043	0.0169069	0.0245675	-0.0121702	-0.0367808	0.0888861	0.00146674	0.000660148	0.102435	-0.013407	0.0247229	0.00958292	-0.10983	0.0658937	0.0308339	0.0611753	0.0270605	0.0624079
narl	0.0132476	0.0353201	0.0334298	0.003835	-0.0571868	-0.0181499	0.0351619	-0.0984772	-0.0437535	-0.0724039	0.140897	0.0568657	-0.130334	0.0940271	-0.0669803	0.0667686	0.0225256	0.0889907	-0.0894148	-0.0397047	0.0433634	0.0864991	-0.0542792	0.161196	0.0393084	0.00933398	0.0606372	-0.0575842	-0.0684455	-0.045149	0.0200718	0.113158	-0.0189375	-0.0485749	0.030416	0.163198	-0.0914052	0.0542742	0.01578	-0.0231746	0.0729647	0.0348542	0.0874186	-0.0100003	0.00889517	-0.0904655	0.0114576	0.0246433	-0.0330838	0.080121	-0.00138443	0.02725	-0.11713	0.0531181	-0.061518	0.0546691	0.00568636	-0.0060865	-0.114412	0.0420993	-0.0602721	0.0503584	0.0899739	-0.0458033	-0.118041	0.0518445	-0.0351287	0.0137485	-0.119612	-0.0394559	-0.101482	-0.0461351	0.144298	-0.0439435	0.107327	0.050541	0.0904112	-0.100379	-0.0248044	-0.105986	0.0385103	-0.155807	0.0241341	0.0319876	0.0460994	-0.0828721	-0.0266249	0.060204	-0.0108634	0.0157738	0.100715	-0.0654917	0.0505067	0.00828098	-0.0776257	-0.0542284	-0.0362966	0.012841	-0.0500686	0.0130466
arca	0.0398298	0.0648675	0.0293461	0.108724	-0.0160538	-0.0460334	-0.0166903	-0.078567	-0.0310516	0.117266	0.0427532	0.0919337	0.0438182	-0.0192505	-0.0555783	-0.0962735	0.060754	0.110404	0.0508358	-0.00238318	0.0401021	0.0594059	-0.083449	0.118613	0.0256905	0.0906511	-0.0262936	-0.0168876	-0.0129032	-0.000885165	0.0290647	0.0451971	-0.146918	0.0834545	-0.00909128	0.0910635	-0.0583027	-0.0223284	0.155133	0.0769459	0.0398677	0.0473005	0.162131	-0.112795	0.0844723	-0.109813	0.0101008	0.0593845	-0.0227173	0.113545	-0.0461475	-0.0741724	-0.0930496	-0.0055688	0.16899	-0.0344088	0.116627	0.0137398	0.0198568	0.00733437	0.0936436	0.084885	-0.0372984	-0.0963627	-0.0942489	-0.046754	0.00735307	-0.013381	0.025602	-0.120439	0.0999379	0.0790027	0.0926594	-0.101381	0.142565	0.124156	-0.0166385	-0.113024	0.0124088	-0.0903392	-0.0549585	-0.178273	-0.0238136	0.000323851	-0.0164895	-0.0525081	-0.0675221	0.0568611	0.0507308	-0.0857664	0.147391	0.00287736	0.0230861	-0.0314494	-0.0435994	-0.00763349	-0.124422	0.0209625	-0.10644	0.042188
soxs	-0.0586218	0.0566303	-0.0230142	0.145312	0.0904862	-0.131861	0.196405	0.047132	-0.136181	-0.0726655	-0.0309202	0.10007	-0.0571116	-0.0677476	-0.119186	-0.00160916	-0.0378735	-0.0236387	-0.0857431	-0.0794122	-0.00530518	0.0213619	0.0348082	0.0833704	-0.12092	0.0549652	0.0544269	0.0545889	-0.0216826	0.02562	0.0757741	0.0806613	-0.0207347	0.0582224	-0.0921846	0.0793872	-0.0302704	0.07275	0.0562124	-0.00907071	-0.0874467	-0.0153618	0.0708575	-0.100057	0.0975008	-0.126623	-0.0562877	-0.121184	-0.0254932	0.0426523	-0.00200494	-0.0626057	0.0511681	0.0946739	0.184702	-0.104511	0.0398144	-0.0049242	-0.059156	0.0139123	0.0234909	-0.0204398	0.0766853	-0.0812619	-0.118749	-0.113448	0.197601	0.0472833	0.0769284	-0.0220722	0.167461	0.00772092	0.130484	-0.0972027	-0.010094	0.00362925	-0.0546651	-0.0603588	-0.0336738	-0.112396	0.0294136	-0.0393802	-0.00801746	-0.0393856	-0.0366241	-0.0822321	0.0977756	0.0939526	0.0424144	-0.0785708	-0.00924528	-0.0124767	0.0103239	0.0143266	-0.12465	-0.0169305	-0.0898162	-0.0497955	-0.1091	0.00327067
fnr	0.00813003	0.11442	0.113408	0.00578488	-0.0565136	0.014976	0.0238306	-0.0620258	0.0699457	-0.0793452	0.00135003	-0.0265538	-0.0623334	-0.0528138	-0.0916015	-0.0351721	0.027585	0.0409278	-0.060155	0.0192747	0.0900681	0.0479373	-0.17541	0.0291272	-0.0337846	0.00842658	0.0395423	-0.0906847	-0.0476372	0.0929299	0.057405	0.0514848	-0.0515047	0.0276711	0.0605619	0.167538	-0.100639	0.0635032	0.0359829	0.124666	-0.0809718	0.0209083	-0.0125791	-0.0624818	0.040559	-0.0602543	0.0638123	-0.102066	-0.0252242	0.112919	-0.0465147	0.00773054	-0.112229	-0.0396539	0.00296565	-0.106984	0.0888346	-0.0214878	0.0249464	-0.00313573	-0.0318215	0.0712812	-0.0203172	0.049352	-0.0689719	0.0716533	-0.0213135	-0.0227816	-0.0691191	-0.0623266	0.0938482	0.0430551	0.169963	0.0970888	0.0596436	0.0116763	-0.125621	-0.0477709	-0.0763909	-0.0554461	0.00209721	-0.129191	0.0463188	0.0926104	0.0802028	-0.147492	-0.119521	0.0173278	-0.0568001	0.0505876	0.0846012	-0.00855338	0.117695	0.026695	-0.0176466	-0.0298109	-0.0741272	0.13611	-0.0690072	0.0385678
csgd	0.0332026	-0.00651426	0.029375	0.035267	0.0212569	0.00489585	0.0183126	0.0247142	0.068654	-0.0820524	0.0179028	-0.0526841	0.00550261	-0.0931284	0.0454921	-0.0748515	0.110123	0.0476706	-0.00234983	-0.0217456	-0.0380951	-0.0171545	-0.0693059	-0.0299909	-0.106525	0.025615	-0.0313664	-0.011034	-0.000520014	-0.00975694	-0.0442498	-0.0985799	-0.0303464	0.0461751	0.151432	-0.0763606	0.0350688	0.0107377	0.0452554	-0.0140944	-0.120449	0.0695032	-0.0878109	-0.0370381	-0.111244	-0.00218063	-0.0271401	0.0650562	0.156622	0.0389312	-0.00437089	-0.0680451	-0.0413369	0.0467017	-0.0858015	-0.0574913	-0.069621	-0.099701	0.073509	0.0567773	0.0453255	0.0119498	-0.0625444	0.0571497	-0.0668143	0.0632846	0.0423167	0.0267919	0.00705384	0.0178117	0.0593744	0.0443066	0.0373598	-0.118797	-0.0564622	0.065676	-0.0390131	-0.0414611	-0.0811407	0.0460126	0.0101907	-0.0694918	0.0919545	-0.00906763	0.0101772	0.0191811	-0.0975271	0.00681977	-0.0512203	-0.0132553	0.0100095	-0.0925399	-0.00679784	0.0821169	0.046957	-0.11938	0.0832338	0.056476	-0.0676544	-0.00115964
iscr	0.0515833	0.108749	-0.0494794	0.183747	-0.0392215	-0.0337586	0.0751092	0.127688	-0.0515864	0.0492662	-0.0179244	0.0613221	0.0381035	0.039261	-0.0264681	0.114271	0.0657646	-0.029558	-0.0678745	-0.03931	0.0365038	-0.00695667	-0.061653	0.142754	0.105225	0.0757907	0.000345288	-0.0649533	0.0457486	-0.0388627	-0.0627255	0.0464024	0.0250551	-0.0769579	-0.0710344	0.160779	-0.0294528	-0.0043588	0.0522776	-0.0818558	-0.0373347	0.0276857	0.0295498	-0.00939255	-0.0352827	-0.0531035	-0.0270315	0.0409271	0.0216917	0.0888816	0.0835123	0.0455205	-0.115263	-0.0217465	-0.0564768	-0.0792797	0.0311812	0.022252	0.0894447	-0.058248	0.0323004	0.0935813	0.0737734	-0.0585861	-0.209584	-0.0199703	0.031885	-0.0611801	0.0655914	-0.183683	0.0179365	-0.00151764	-0.0244364	-0.053435	0.0208277	0.108035	-0.0332854	-0.0804363	0.163398	-0.0665288	-0.135103	0.0186717	0.0212651	0.0181554	-0.00224878	-0.012387	-0.118353	-0.0323083	0.00720829	-0.0318921	0.031021	0.0542085	-0.0556937	-0.0685968	-0.00204526	-0.0305595	-0.0849767	-0.0412297	-0.0904555	0.121911
oxyr	-0.00863838	0.10951	-0.0150783	0.0784166	0.0783314	-0.037557	0.147596	0.118439	-0.071374	0.0141289	0.0276436	-0.00737796	0.052327	-0.0461297	-0.153562	0.201083	0.132219	0.0146323	-0.0948194	-0.0571814	-0.0676849	0.122805	-0.0638245	0.0844581	0.0207928	0.106002	0.0125323	-0.0704798	-0.0986655	0.153914	0.0540776	0.174196	0.0341806	0.0170911	-0.0862806	0.129465	0.0117098	0.0133738	0.0303472	0.00713407	-0.113216	-0.123803	0.00746912	-0.0730616	-0.137275	-0.0447825	-0.0292728	-0.0786362	-0.0931904	0.0334321	0.0552463	-0.0153754	-0.0227678	-0.052968	-0.0617493	-0.100392	0.0399905	-0.0307465	-0.000361259	-0.0920093	-0.0723096	-0.00603167	0.127898	0.00533462	-0.114415	0.041983	0.0494696	0.0288129	0.153093	-0.105194	-0.00410903	-0.0288187	0.112051	-0.0340417	0.0515813	0.080564	0.00712062	0.00662868	0.0260394	-0.0292427	0.0212782	-0.112305	0.0324045	0.016365	-0.074733	-0.129991	-0.0066687	0.100288	-0.0959471	-0.0296828	0.0386474	-0.00689939	0.0335658	0.0120332	-0.0515371	-0.0992459	-0.0713401	-0.0174273	-0.0476957	0.106307
mara	0.0222424	-0.123435	0.0503876	0.0901269	0.0468329	-0.046386	0.168712	-0.0128914	-0.104318	-0.0961372	-0.0538343	0.0611412	-0.0287078	-0.0389156	-0.039381	0.00535468	0.0370707	-0.00358914	-0.144914	0.0389918	-0.00651096	0.0730887	0.0546666	-0.0562113	-0.105727	-0.00940796	0.0130928	0.0927811	-0.0442631	0.0549865	0.0656308	-0.0019869	-0.0817219	-0.0492529	-0.0882307	0.0120908	0.0519592	0.104124	0.0635982	-0.0365771	-0.0144101	0.0148949	-0.0135792	-0.00702713	0.0833142	-0.0937359	-0.0371441	-0.0917513	0.0721866	-0.0145322	0.110718	-0.0758802	0.0110475	0.0800242	-0.01563	-0.163323	-0.034828	0.0653454	-0.0600734	-0.0209875	0.120211	0.0385124	0.164403	0.123693	-0.00337975	-0.0238816	0.0368759	-0.0231081	-0.0211661	-0.0135319	0.053321	0.0477617	0.0121319	-0.0303431	0.0701302	-0.00494442	-0.0484974	-0.102315	0.0400949	0.0207427	0.0435216	-0.109333	-0.0616635	0.178514	-0.0617899	0.00826802	0.0684288	0.113936	-0.0707618	-0.0174163	0.0607602	-0.0177209	-0.052708	-0.0673704	0.0257628	-0.0342832	-0.0464551	-0.068583	-0.086818	0.012843
ydeo	-0.020069	-0.0227138	-0.0154496	0.12574	0.0651072	0.0443933	0.0822545	0.077387	0.0597706	0.125777	0.0516961	0.0650147	0.120997	0.123671	-0.0436119	0.0022476	-0.0806615	0.110472	-0.0274926	-0.0305668	0.115152	0.08989	-0.0151483	0.0108274	0.156922	0.0779548	-0.0738808	0.053347	-0.0358445	-0.0193105	0.073657	0.108742	-0.128542	0.1899	-0.0349449	0.0607311	-0.00716933	0.0072976	0.116686	0.0298716	0.0156471	-0.0976528	0.0977386	0.00133465	0.0245156	-0.128123	0.00947199	-0.12136	0.152042	-0.0252385	0.0371864	-0.146671	-0.144328	-0.133107	0.101342	0.00337621	0.103956	0.049138	0.018654	-0.0243289	-0.00206386	0.0682519	0.0363827	-0.0312008	-0.107486	-0.023047	0.0071558	-0.103447	-0.0318415	-0.236109	0.0697838	0.03333	-0.0171574	-0.0748344	0.0475841	0.10503	-0.0726741	-0.0675909	0.076835	-0.105953	0.000261102	-0.187943	0.10758	0.0334054	0.0141311	0.0432504	-0.159073	0.0902765	0.163061	-0.00788989	0.0495474	-0.10528	0.0398528	-0.0483657	0.0117563	0.00487446	-0.0671942	-0.00590568	-0.0303616	0.059186
fhla	-0.0512364	-0.0300583	-0.0670631	0.129585	0.096774	-0.120651	-0.00515458	-0.00644622	0.0683854	0.00821153	0.029303	-0.0695691	-0.0405704	-0.114572	-0.0566379	-0.116213	0.156374	0.183826	-0.0646231	-0.0472636	0.0830191	0.0729829	-0.0777055	-0.00655613	0.122838	0.113708	-0.049685	-0.205753	-0.103472	0.098326	0.00804963	0.011469	-0.0287839	0.118313	0.00939466	0.114015	0.02871	0.094594	0.0613613	-0.0907952	-0.0598361	0.126226	-0.0113263	-0.071661	-0.0205774	-0.00450285	0.052535	-0.0623818	0.0301477	0.070099	0.11696	-0.069807	-0.0981758	0.0919633	0.0149259	0.0498882	0.0294298	-0.0164082	-0.0824161	-0.0185027	-0.0814781	0.047987	-0.0451198	-0.160331	-0.0811437	-0.0164168	0.0982656	-0.0443809	-0.105309	-0.142614	0.0881483	0.139075	0.163288	0.005498	0.0401143	0.00358087	-1.26467e-05	-0.0348501	-0.0253302	-0.0326076	0.100597	-0.0832687	0.00025713	0.0423337	0.00143445	0.0348666	-0.000235339	-0.0231435	-0.00654137	0.108256	-0.0622562	-0.0260975	0.0196407	-0.00624176	-0.0633571	-0.0768245	0.037809	0.00125343	-0.0917724	-0.0705746
fliz	0.0314653	-0.176496	-0.0719177	-0.0341872	0.0528742	-0.00962571	0.0695956	0.0177692	0.048174	0.11895	-0.0323372	0.0096175	0.00922002	0.0620006	-0.0573887	-0.123853	0.0566889	0.0111173	0.0208027	0.0418317	-0.0648503	0.139146	0.048943	0.0738703	-0.120756	0.0897689	-0.0426308	-0.0444057	-0.00974242	0.0614172	0.0110106	-0.0585178	-0.201896	-0.0150997	-0.0518764	-0.047002	-0.0331228	0.0928167	-0.0264669	-0.0359411	-0.0546994	0.0989877	-0.0742554	0.096472	0.0101142	-0.119681	-0.0280884	-0.072206	0.0209982	0.114703	0.0720441	-0.0669638	0.00376818	0.0221876	0.00775642	-0.089724	0.0317189	0.0402892	-0.0281422	-0.112658	0.0113374	0.0837302	0.0372189	0.0443432	-0.0869656	-0.0311256	-0.0230453	0.0370962	0.0484417	-0.0691912	0.00757748	0.0415444	-0.0623279	-0.115995	-0.0634638	0.23064	0.0638534	-0.0683607	-0.116749	-0.121113	-0.0364776	-0.0248908	-0.06558	-0.0172609	-0.0946349	0.0256775	-0.09081	0.103054	0.129411	0.113881	0.0835814	-0.185437	0.0858121	-0.00594329	0.0954053	0.000175496	-0.125142	0.000528235	-0.026077	0.058368
gade	-0.121387	-0.113946	0.0104292	0.0601134	-0.0372943	0.0558241	-0.0171607	0.0129378	0.0307214	0.0250762	0.0780621	0.131497	0.122118	-0.00366994	-0.00905299	-0.14399	-0.0427363	0.126978	-0.00514415	-0.0235399	0.0452882	0.0675208	0.0335215	0.0150935	0.0943424	-0.0462492	0.0184935	0.0438781	-0.0811467	-0.0942647	0.0883459	0.0294542	0.0383109	0.0854736	0.0345022	0.00386469	-0.0560954	-0.0781564	0.0746668	0.0680261	-0.0463999	0.0762537	0.0236588	-0.0130848	-0.0159164	0.0146538	-0.0377785	-0.0187571	0.12274	-0.0356124	-0.114441	-0.106652	-0.0719352	0.0466423	0.129358	0.0438686	0.175892	0.0725065	-0.0106458	-0.00937191	0.0321835	0.130989	0.165141	-0.21483	-0.0124696	0.0324523	-0.063902	0.00978054	0.0243597	-0.0601952	0.122934	0.0921047	-0.0343456	-0.150175	-0.115406	0.162757	0.0335722	-0.0531302	0.0249521	-0.0318664	-0.0868492	-0.0949754	0.100908	-0.042528	-0.0767549	0.0362132	-0.0299594	0.138891	0.0922101	0.0336632	-0.0354044	-0.0222334	0.103873	0.0225049	0.110193	-0.0315828	0.025756	0.0127763	0.0540422	0.0553687
cra	-0.0342986	-0.0134263	0.00354097	0.112523	0.0547795	-0.0593896	-0.00586428	-0.138907	0.0612096	-0.00839474	-0.124939	-0.042868	-0.0214855	-0.0798386	-0.0399891	0.029876	0.0672736	0.0419927	-0.13399	-0.0490921	0.0878073	0.07163	-0.0744791	0.019123	-0.0239843	0.0987072	0.0427725	-0.00147073	-0.10192	0.112986	0.144946	0.0558341	-0.129925	0.105479	0.0220025	0.0851043	-0.137334	-0.041414	0.0372783	0.00722316	0.204766	-0.0367611	0.0552531	-0.0563605	-0.0561926	-0.00736837	-0.0944977	-0.0557018	0.0189108	0.122781	-0.0764342	0.027072	-0.0237988	0.121638	0.189701	-0.0742241	0.108061	0.0798178	-0.0117203	0.0174269	-0.102718	0.104809	-0.120733	-0.231538	0.106475	-0.0249178	-0.0924372	0.0372675	-0.170629	-0.0809678	0.0209978	0.0391265	0.011881	-0.0317433	0.0563167	0.146291	0.073618	-0.0172835	0.0716734	-0.0667991	-0.0113792	-0.00986767	0.0948098	-0.0123665	-0.126148	0.00737562	0.0201373	0.0463511	-0.0635952	-0.0545014	0.163967	0.0446821	-0.0971795	-0.0928612	-0.181381	0.0102914	-0.0946217	0.065465	0.0161388	0.0542822
leuo	0.00896243	0.0111652	0.221174	0.0591501	0.0398135	0.0340639	-0.00178244	-0.00173456	0.0132219	-0.0620047	-0.0827122	0.0905919	-0.154123	-0.0630084	0.0153479	-0.0490003	-0.243899	0.146811	0.107111	0.0415516	0.0695231	0.0711277	0.058127	0.0578487	0.179537	0.0411765	0.0464055	0.108072	0.122824	0.00850974	0.0306556	0.0761872	0.0524873	0.054163	0.0600981	-0.0376358	-0.0326182	-0.0569685	0.0296339	0.122366	0.0389442	-0.116635	-0.0341129	-0.125375	0.0100703	-0.254082	0.0187887	-0.0538832	0.148766	0.116884	-0.00350502	-0.0980404	0.0293319	-0.165247	0.132356	0.0880408	0.0658646	0.21604	-0.0898095	-0.0752068	-0.0260093	0.0733877	-0.0811486	-0.0573778	0.0210371	-0.0553412	0.00381912	-0.0321691	-0.0208983	-0.0630122	-0.0320072	-0.0982435	0.160876	0.0365257	0.10939	0.0361921	-0.0379574	-0.188646	-0.0389421	0.0174432	0.0224089	-0.260079	-0.0179778	0.0785281	0.0670857	0.118257	-0.120062	0.118511	0.0672711	0.035301	0.0333222	0.0212217	0.157073	-0.0495084	-0.135229	-0.020678	0.0332201	-0.116448	-0.104896	-0.00916732
ompr	0.0381474	-0.139935	-0.0671247	-0.0965618	-0.0947469	0.0604121	-0.0743926	-0.0206078	0.0454528	-0.0620644	-0.0522052	0.0201808	-0.0577409	0.0197558	0.00369237	-0.0164746	0.0722875	0.0204745	-0.0210667	-0.117912	-0.0100582	-0.00441554	-0.0941267	0.0163512	-0.136946	0.103701	0.105598	-0.034382	-0.0443396	0.18162	0.0554136	-0.0514572	-0.125407	0.116569	0.118284	0.0570435	0.0197495	0.00300766	-0.00344153	0.113141	0.0173389	-0.013335	0.0252911	0.015962	-0.0612756	-0.0601823	-0.153418	-0.0721651	-0.024525	0.081783	-0.0282039	-0.0670617	-0.00183125	0.101067	0.104707	0.0024737	0.02774	0.100737	-0.0161215	-0.120142	-0.0739561	-0.0151218	-0.114244	-0.0508622	-0.0677371	0.0456081	0.0067143	0.0037671	-0.0499304	-0.0660201	0.082983	0.113904	0.00822486	-0.0760724	-0.0344589	0.0590723	0.0238202	0.0274264	-0.0508075	0.0613181	-0.00969236	0.0772968	0.0391098	-0.120839	0.00766095	0.00783754	-0.158465	0.0658609	0.0402927	0.00446316	0.126729	-0.094339	0.00962282	-0.010299	-0.0818549	0.0162407	0.0834471	-0.0241741	-0.0149127	0.0933601
gadx	-0.0804389	-0.203216	0.094528	0.0670765	-0.0246642	-0.0292658	-0.0548023	-0.0319148	0.0801041	0.060699	0.0814786	-0.0687831	-0.067649	0.0147669	-0.165185	-0.2	-0.0450811	0.0841259	0.0670078	0.0193357	0.156556	0.0465862	0.0653779	-0.0405273	0.168108	-0.0607483	-0.0667097	0.0510515	-0.0906487	-0.109698	-0.0176543	0.0287823	-0.0982453	0.067741	-0.0788338	-0.00528766	-0.0882344	-0.0407305	-0.00565588	0.0627717	-0.0113379	-0.0509182	-0.0468125	0.0495908	0.0927506	-0.0377727	0.129232	-0.145436	-0.0861889	-0.156895	-0.0108263	0.0118317	-0.00152245	-0.0260501	0.0165946	0.0928891	0.116472	-0.0410763	0.0543382	0.0729962	0.0821937	0.0150646	0.00667037	-0.00667073	0.108299	0.0856434	0.0467349	0.0510505	0.0596295	-0.11035	0.0391564	0.0568567	-0.0102972	-0.0379721	-0.121099	0.0525515	-0.0732861	-0.0306175	0.0576102	-0.0350082	0.0157247	-0.0918871	-0.088757	0.0682096	0.0789836	0.0536891	-0.0521478	0.00768861	0.0441177	0.00273701	0.0142623	-0.0555043	-0.00411502	0.0129463	-0.00950479	-0.0856405	0.0904341	-0.00662777	0.0875846	0.0438704
cysb	-0.0278598	0.0908333	0.000445044	0.0557939	-0.00810652	-0.0141606	0.0161202	-0.000776857	0.0248896	0.104209	0.00327947	-0.0418483	0.0118688	0.0565921	-0.0132823	0.0615992	0.0460595	-0.000517401	-0.136925	0.0396903	-0.0200535	0.0552449	-0.0804356	-0.0232445	-0.0778065	-0.0153519	0.099577	-0.0393982	-0.0779399	0.0865689	0.154157	0.0734698	-0.0877695	-0.0734956	0.0817705	0.143279	-0.0608134	-0.00911233	0.0609276	-0.0625383	-0.0112969	0.0903164	0.0239699	-0.0344241	-0.0216464	0.0470761	-0.144102	-0.0696638	-0.0842875	0.0656496	0.0611312	-0.0152351	-0.0962735	0.0159594	-0.00393561	0.0289564	0.165582	0.0601829	0.10744	-0.136359	0.0041242	-0.0345549	0.0441193	-0.0853482	-0.0548803	-0.0152727	0.0940157	-0.048653	-0.0839034	-0.154865	-0.0295273	-0.0323133	0.0337741	0.0204171	0.0428619	0.0955581	0.00847051	-0.0986317	-0.0396578	0.0146113	-0.0185905	-0.10561	0.00936342	-0.000663442	-0.0624647	0.0738152	-0.0787556	-0.000231753	-0.0652486	0.0303851	0.100197	0.0516379	0.0351041	0.0297297	-0.0564437	0.135944	-0.0350711	-0.0522496	-0.0476081	-0.100697
dnaa	-0.0173079	0.116733	0.0501357	0.00253635	-0.0189813	0.12596	0.0476332	0.0421879	-0.0135368	-0.113261	-0.0929252	-0.00754928	-0.0218689	-0.0774825	-0.117823	-0.0206976	0.0106663	-0.0598028	-0.0678455	-0.0420236	0.116567	0.156249	0.0884347	0.0854972	0.0228383	-0.000913048	-0.0413428	0.0536982	-0.0582565	0.0409687	0.0299846	-0.031135	-0.0242	0.0802482	-0.070607	0.0392196	-0.102664	-0.173439	0.0316041	-0.0652541	-0.0435896	0.00957604	0.0562434	-0.0392309	0.0200068	0.00824026	0.000469639	0.0474976	0.0239883	0.00996792	0.157499	0.0267678	0.0719553	-0.0264383	-0.0639502	0.042439	0.0638401	0.0853328	-0.0840206	-0.00799978	-0.0727978	0.0182831	-0.00648352	0.008157	0.0207282	-0.0236983	-0.115386	0.00593443	0.0363877	0.208595	-0.0574085	0.00984843	0.0556559	-0.0756711	0.0456829	0.106791	0.0660427	-0.135781	-0.0227851	0.0198883	0.0482247	-0.0481984	0.0220129	-0.117964	-0.0271876	-0.0482579	-0.0233465	0.0572326	-0.087195	-0.101289	0.018773	-0.12465	-0.00967117	0.101525	-0.0512106	0.033397	-0.124827	-0.012757	-0.0382466	0.109726
phop	-0.000525172	-0.179145	0.151661	0.0506655	0.0994341	-0.00162709	0.0522026	-0.0487643	-0.0367766	-0.0709602	0.0308218	0.0168169	0.0322855	-0.0381288	-0.112453	0.00033564	0.0196647	0.00588878	0.0157517	0.0639101	0.0304238	0.0908795	-0.100973	0.0223204	0.0733198	0.0474597	-0.0212312	0.0917052	-0.0953771	0.171064	0.0980923	-0.0092453	-0.0175469	-0.0348698	-0.0336426	0.0681266	-0.0864474	-0.0280262	-0.0122551	0.0565369	-0.0311097	0.117986	0.0235247	-0.029139	0.15521	-0.0870572	-0.0506778	-0.0695342	0.14715	0.0112868	-0.0153604	-0.120592	-0.171401	-0.0414525	-0.0297898	-0.0884337	0.082254	0.00323588	-0.0530853	-0.0834615	0.00714101	-0.0175	0.106194	0.050495	-0.0138656	-0.0325787	0.0221239	0.0268395	-0.00289577	-0.158815	-0.0471243	0.0548196	-0.0272088	-0.131723	0.123997	0.0352126	-0.00632445	-0.133176	-0.0613491	-0.0274737	0.0676008	-0.151303	0.0950466	0.0614797	-0.0313849	-0.015056	0.0150936	0.114346	0.207281	0.04066	0.0830934	-0.00126319	-0.0414426	-0.105738	-0.0358459	0.0220642	0.0348554	-0.0847576	-0.006738	0.0577579
narp	-0.0159552	0.0505007	0.0412193	0.0576651	-0.11147	-0.0219817	0.0359129	-0.0378654	0.0557745	-0.127203	0.0636536	-0.125155	-0.100452	0.00251969	0.0239491	-0.0548867	-0.0227217	0.0345683	-0.0825533	-0.120608	0.0419269	0.0903343	-0.0187015	0.132199	0.0154604	-0.0444815	0.0680002	-0.0476392	-0.0795245	0.13354	0.0282036	0.071688	-0.0348789	-0.00994945	-0.0195949	0.121077	-0.109501	0.190323	-0.00509044	0.0556493	0.0604487	-0.0128532	0.0890665	-0.00846204	0.061251	-0.0656404	0.0343139	0.00738837	-0.0121563	0.143221	-0.0628485	0.0835262	-0.105201	0.099705	-0.109172	0.0301495	0.112806	0.0575803	0.00893167	0.0215143	-0.0268171	0.0684637	0.0737839	0.0455411	-0.103776	0.0377048	0.0250331	0.0436962	-0.0621536	-0.0191589	0.0281728	0.0346463	0.103792	-0.0876958	0.0335474	0.0732825	-0.108459	-0.168105	-0.00333511	-0.104978	0.0463127	-0.075932	-0.00438827	0.0935242	0.0434712	0.0243645	-0.01551	0.0738975	0.0532558	0.0337722	0.134708	-0.117917	0.0952958	0.063127	-0.140402	0.0559876	0.0424751	0.00766885	-0.12899	0.0140897
ntrc	0.0121922	0.124058	0.0868205	-0.0187844	0.0161874	-0.112099	0.0166684	0.111844	-0.037167	-0.0309369	0.0202403	-0.0551456	-0.0542728	-0.0473095	0.0178674	-0.0192739	0.151734	-0.0149062	-0.0984065	-0.139393	0.0598967	0.0185679	-0.0824954	0.0802983	0.127817	0.0160265	0.0884315	-0.059952	-0.0913146	0.0644516	-0.0557062	0.0498059	-0.078078	0.0337551	-0.0118029	0.0706515	0.0734087	-0.0313444	0.0137093	0.0234714	0.0875713	-0.0274021	0.0170337	-0.0780966	0.0721785	-0.0603779	-0.0952579	-0.0597665	-0.0290395	-0.00523326	0.0450037	-0.0767551	-0.10427	0.130574	0.138579	-0.0670869	0.0514289	0.0586386	0.077326	-0.0631926	0.10148	-0.127621	0.0467134	-0.0369898	-0.0243375	0.028164	-0.078662	0.045697	-0.0986941	-0.0317894	0.0139408	-0.128311	0.0212566	0.0913568	0.0756912	0.138442	-0.0262387	-0.0208498	0.028106	-0.121278	0.0367123	-0.054154	-0.0207002	-0.00952368	-0.0936261	-0.027441	0.0739911	0.0755089	-0.0144987	0.0582764	0.0853748	-0.033659	0.00366791	0.0542276	-0.0842337	-0.102002	0.0408756	-0.0387328	0.064107	-0.0318711
cytr	0.121624	0.0335384	0.0302097	0.0243763	-0.0278136	-0.0104291	0.0193551	-0.0126218	0.111849	-0.0425034	-0.0942005	0.106227	0.0780583	0.133408	0.17721	0.0420918	0.028616	0.075332	-0.0398394	-0.0976036	0.161526	0.0440144	-0.014011	0.164365	-0.0682066	0.125259	0.0440268	0.0243392	-0.022115	0.0203423	0.0585103	0.0212095	0.087254	0.0449279	0.0376624	0.162392	-0.0901005	-0.0104569	-0.00311049	0.00467	0.136737	-0.0362086	0.119923	0.090605	-0.0859337	0.0465138	-0.0592348	-0.0394365	0.0104591	0.0663627	-0.0977436	0.0801041	-0.0403203	0.0602617	0.149408	0.0294128	0.0279429	0.125332	0.0397475	-0.0508794	0.124699	-0.0381003	-0.0854923	-0.120507	-0.165095	-0.116712	-0.0559162	0.121158	-0.0941988	0.072175	0.0377051	0.0394473	-0.04796	0.103644	0.0173254	0.0168477	0.120347	0.122484	-0.0407479	0.0660241	-0.0934511	0.0823752	-0.135925	-0.0944697	-0.099116	-0.0160662	-0.0406768	0.0881567	0.0235729	-0.0286598	0.125935	-0.0227869	0.0838276	-0.0108845	0.0995873	-0.00388006	0.0516682	-0.0738498	-0.101435	0.0780751
trpr	0.060236	0.0772181	0.0310814	-0.0539549	0.0744675	-0.00643728	0.0463951	0.0851178	-0.0701079	-0.0496705	0.162726	-0.0273299	0.0370981	-0.0518792	-0.0162881	0.00230523	-0.0823489	-0.0080649	-0.121644	0.0494213	-0.0644089	-0.0239014	-0.0846633	0.0697948	-0.0262343	0.0881283	-0.0407543	-0.075526	-0.122103	-0.0266788	-0.0782306	0.201182	0.00633973	-0.149677	-0.0321735	0.212963	-0.0772051	0.00214347	-0.0403214	-0.0667958	0.00755967	-0.0871178	-0.0200842	-0.023737	-0.0272419	-0.0616664	-0.0843229	-0.1607	0.131627	-0.00550467	-0.0221422	0.00657062	-0.124302	-0.0253977	0.00972164	0.0545288	0.10883	0.0932501	0.00980004	0.0226982	0.0457289	-0.00962251	-0.0863744	0.0144708	-0.0553027	-0.062884	-0.0919008	0.0953832	0.05675	-0.0704292	-0.0915805	-0.0577181	0.132081	-0.00368687	0.0405917	0.0675204	-0.0913153	0.0222797	-0.0693817	-0.0893739	-0.0341612	0.000356649	-0.0213805	-0.0790201	-0.0808825	-0.0714323	0.0262885	0.0169294	0.0370932	-0.0619647	0.00688057	0.0317499	-0.106937	0.00153679	0.0493955	0.0283319	-0.0368945	-0.00146893	0.0379228	-0.0219071
rob	-0.139448	-0.0759821	-0.0174781	-0.107862	-0.055367	-0.12751	0.110572	0.0693966	-0.0758197	-0.113092	-0.037079	0.128328	-0.135748	-0.0482931	-0.0396064	-0.0896976	0.000840434	0.0238418	-0.101819	-0.0192017	0.00234903	-0.0745497	0.142858	-0.0980203	-0.169491	0.024571	0.0797306	-0.0220714	0.0688774	-0.0271254	0.0524467	-0.0111072	0.0683488	-0.0384213	0.17208	-0.00211513	-0.0232325	0.132121	0.0858597	0.0510377	0.0732564	0.0137381	0.00508915	-0.00795172	0.0498031	-0.0673014	-0.00402803	-0.00293747	-0.0900113	-0.0143327	0.0329336	-0.0680575	0.130512	0.137683	0.0983016	-0.0360106	0.0401093	0.0825193	-0.131636	-0.0621665	0.0113421	-0.0772745	-0.00502629	0.0304672	-0.0498994	-0.076642	0.182675	0.0559109	-0.0863319	-0.0867851	0.0118537	0.103529	-0.000125361	-0.149163	0.149112	-0.0392849	0.0101517	-0.00553091	0.0232896	-0.017456	-0.0346758	0.000326286	-0.0613622	0.0116408	-0.0813444	0.0117204	0.00527022	0.20405	0.0525937	-0.0302458	-0.0791585	-0.0823634	0.0229664	-0.0303433	-0.247319	-0.00636547	0.0286694	0.0376183	-0.006225	-0.0445132
basr	0.105268	0.0302815	-0.0826974	0.0673736	-0.0514262	0.0866785	-0.0227329	-0.0588725	-0.0446031	-0.0248366	-0.0440825	0.00682679	-0.0477609	-0.0613637	0.0505955	0.00613323	0.156611	-0.0315982	-0.0410305	-0.160417	0.165651	-0.011476	0.0290516	0.104268	-0.0400808	0.0993834	-0.0537954	0.0289616	-0.0637758	0.136459	0.0777314	0.0402285	-0.0524816	0.101594	0.121179	0.0550044	0.000458507	0.0640186	-0.0965467	0.0158582	-0.0119572	-0.0203403	-0.0354703	0.115771	-0.0945129	-0.160755	-0.164368	0.0215131	0.0195094	0.13206	0.113522	-0.125809	-0.0410814	-0.000609706	-0.0595035	0.0145066	-0.00316813	-0.0160889	0.0303757	-0.0462864	0.0518422	0.0737115	0.00372449	0.0676442	-0.0576694	0.0514241	0.0561696	-0.0815867	-0.0848823	-0.0145879	-0.0374024	0.0334157	0.00763226	-0.139361	0.0201312	0.127951	0.0368212	-0.135339	-0.0571026	-0.118283	0.0368794	-0.0377631	0.0283402	0.00289946	-0.0307916	-0.0391531	-0.0667358	0.0286012	0.0409749	0.101317	-0.00308538	-0.00959716	0.0985244	-0.139225	-0.0847529	0.179995	-0.0191763	-0.0246363	0.0215161	0.0768298
lexa	0.0844511	0.0993637	0.161338	0.0441235	-0.018923	-0.0575552	-0.0140139	-0.0343486	-0.0427285	-0.0574229	-0.0254311	-0.0271346	-0.0148426	-0.080652	-0.0288533	-0.00706664	-0.0189058	-0.0790253	0.0294053	-0.0319078	-0.0853849	-0.000884199	-0.0456759	0.154149	0.0448914	0.0603319	-0.0463225	0.076155	0.00561953	0.13443	-0.0495772	0.113286	-0.0205637	-0.0261405	0.0186287	0.0185081	-0.0756284	-0.0192894	-0.113588	-0.0851676	0.0967078	0.0396809	0.0467652	0.0431232	-0.0124281	-0.0420918	0.0232411	-0.061077	-0.0493015	-0.00145064	0.0456534	0.0647914	-0.032737	0.0551646	0.0595151	-0.0547162	-0.135794	-0.0884773	0.163561	-0.0644805	0.0164387	0.0704572	0.0476987	-0.066391	-0.0335014	0.0396897	-0.000687066	-0.070087	-0.0103141	-0.0543675	-0.0156297	0.0629192	0.00371848	0.0338004	0.0516424	-0.013054	0.0262777	-0.00973488	0.0162998	0.0275246	0.0470399	0.00466116	0.0261512	-0.0387206	-0.138246	-0.0145876	0.0824226	0.11211	-0.0271931	0.0272464	0.0463284	0.0299275	0.142635	0.0304512	-0.0466688	0.0382501	-0.0278566	-0.130691	-0.0408405	-0.021445
gadw	-0.0529338	-0.103646	-0.017944	0.0385218	-0.0832888	-0.00657342	-0.0430876	0.0741127	0.0185213	0.150299	-0.0175747	-0.0316884	0.0179545	0.0527995	-0.125591	-0.159013	-0.0138254	0.111004	0.0638344	-0.0170022	0.0484021	0.0510608	0.144656	0.0223694	0.123012	-0.0639304	-0.0546529	-0.0217705	-0.0507314	-0.125334	-0.00485471	0.127289	0.0171158	-0.109442	-0.0672961	0.0474168	-0.0708845	0.0968865	-0.0186221	0.0499727	-0.00830794	-0.0227432	0.0184624	0.0916696	-0.0735084	-0.14328	0.209659	-0.00452669	-0.122371	-0.042199	0.0295234	-0.0598568	-0.0393402	0.0110804	0.0315437	0.00818983	0.171278	-0.0549369	0.065609	0.0238395	0.0737365	0.101347	0.0321769	-0.129704	0.0518813	0.00687209	-0.0436764	-0.0446199	0.0693929	-0.019882	0.12636	-0.0294062	-0.105108	-0.0901835	-0.0781062	0.119607	0.00127881	-0.146568	-0.0637613	-0.0582593	-0.0442124	-0.0308949	-0.131525	-0.0184644	-0.00213361	0.0156957	0.0257134	0.0921515	0.0440556	0.0249597	-0.0354122	-0.051165	0.0320988	-0.0329629	-0.0435575	-0.0923987	0.118569	0.11849	0.107482	0.0532534
dpia	0.0301247	-0.0827996	-0.0918867	-0.0569869	-0.0112807	-0.0504545	-0.0625652	-0.0483164	0.0565452	0.00951555	0.088507	0.0824196	0.129381	0.0668616	0.000435899	-0.0633605	0.0571779	0.0552488	-0.0283825	-0.0272542	0.0258758	-0.0198689	-0.0605788	0.00367738	1.35466e-05	-0.11773	-0.0939008	0.014418	0.0390055	-0.00328701	-0.00863773	0.0419967	0.106573	0.0909816	0.073799	0.0776069	-0.0120031	-0.0202165	0.172375	0.0620844	-0.00498525	0.0161752	0.017873	-0.0293979	0.130065	-0.00274532	0.0842859	0.0273934	-0.0545616	0.0278115	0.03721	0.10097	0.0581781	-0.0160102	-0.0435911	0.0175033	0.00972551	0.0139383	-0.128747	0.0035975	-0.105746	0.034847	0.0293953	0.0106381	-0.0421005	-0.0813061	0.127232	0.0399445	0.0271911	0.0619164	-0.0218539	0.00299897	0.070049	-0.0843576	0.0104658	0.0123436	0.0754569	-0.19078	0.0528102	0.0756688	0.113615	-0.0252157	-0.0167946	0.0495729	0.0987031	0.0239828	-0.0139674	0.0517525	0.0133956	0.0361992	-0.0360867	0.0235834	-0.0203491	0.103128	-0.0298771	0.0214481	0.00671345	-0.0852868	-0.0051677	-0.00541865
agar	-0.0485598	-0.0315328	0.00539603	-0.110743	0.0352776	-0.0855085	0.03107	-0.0267945	0.106439	-0.0598858	-0.0610285	-0.0464469	0.101801	0.000474249	-0.0322347	0.104381	0.0254162	-0.220644	-0.0233163	-0.0470016	0.0165587	0.0314781	0.00241235	0.0112903	-0.0113606	0.0577523	-0.036149	0.0448015	-0.10317	0.189904	-0.135352	0.142673	-0.0804137	0.0975598	-0.134004	-0.00532752	-0.144914	0.0263524	-0.0225268	-0.19266	0.022734	-0.056886	0.114347	0.0570404	0.0343293	-0.0668354	-0.0764162	-0.0761463	0.0277616	0.0959043	0.0661604	0.0622787	-0.0816281	0.046363	-0.0821936	-0.0273748	-0.0380119	-0.00798439	0.0300569	0.122955	-0.00282716	-0.0379236	0.0599833	-0.102124	-0.0605934	0.0367561	-0.0103633	0.105262	0.0260878	-0.0792685	-0.0264644	-0.0351557	0.0845697	0.0547602	0.111419	0.0133226	-0.0346556	0.118452	0.037919	-0.0131777	-0.0498823	0.0719617	0.101846	-0.032709	-0.0322492	-0.0981902	-0.0223775	-0.010768	-0.0828017	0.0372386	0.0242708	-0.012023	-0.124443	-0.0359385	0.0226111	0.07044	-0.0778843	-0.146994	-0.0847782	-0.0955468
lsrr	0.0537409	-0.0128783	-0.0282862	-0.0539557	0.0931072	0.0102606	-0.0625558	0.0256372	0.0197179	-0.0527349	-0.0102846	-0.052961	-0.0570684	-0.0440774	-0.047967	0.154638	-0.0705029	-0.0813093	-0.0505417	-0.0938403	-0.166754	-0.0389117	-0.105226	0.206674	-0.0101849	0.131597	-0.0546404	0.000237402	-0.0582184	-0.0510233	0.0633853	0.0767096	-0.16168	-0.0108008	0.116488	0.0282479	-0.0132051	-0.185629	-0.0909922	-0.162042	0.0893616	-0.0587722	0.0557734	0.109033	-0.109333	-0.15027	-0.216571	-0.150127	0.0372905	-0.0656165	-0.0461096	-0.0606851	0.0587306	0.0748997	0.13193	-0.0769883	-0.00640485	-0.0137082	-0.0655043	-0.00578085	-0.144015	-0.120583	0.056185	-0.120705	-0.134129	-0.13818	-0.143628	-0.0271989	0.0064485	-0.0400526	0.00978129	-0.00134164	-0.0598119	0.0946547	-0.17949	0.13962	-0.1129	0.136709	0.125126	-0.0871144	-0.166035	0.091048	0.064416	-0.132332	0.068192	-0.109398	0.0198905	0.0483886	-0.0676354	-0.0357807	-0.0199685	-0.0226776	-0.115509	-0.0413867	0.0397905	-0.115147	0.0525932	-0.0733186	-0.058341	0.0804194
dcur	0.0529589	-0.0050557	-0.10979	-0.0662329	-0.0111435	0.198654	-0.0853055	-0.163976	0.0455889	-0.123229	0.0394872	0.142294	0.0483625	0.146617	0.0363434	0.11252	-0.0444474	0.120319	-0.0405806	-0.0321568	0.120318	-0.0080257	-0.0542785	-0.0182276	-0.00544548	0.0836554	-0.0198985	0.0612378	-0.0444365	0.109963	-0.00402854	0.101037	-0.0381281	0.0660838	0.022505	0.0800146	-0.108208	-0.0107671	0.0411774	0.0119058	0.0972625	-0.0986441	0.125861	0.069686	0.161649	-0.00915789	-0.0428581	-0.0157638	-0.0577673	0.0357995	-0.070351	0.0799999	0.00402072	0.0819264	0.0696605	0.052117	0.0366123	0.0552131	-0.115601	-0.0636932	-0.097003	-0.0113315	0.0618238	-0.148338	-0.10152	-0.0403258	0.0242542	0.00659365	-0.0762306	-0.200512	0.0618768	-0.113397	-0.0145568	0.0006802	-0.070382	0.0186033	0.155638	-0.041564	0.147924	0.0759057	0.0452787	-0.106865	0.167316	0.0120443	0.0716615	-0.0897958	0.0794858	-0.0115107	-0.127546	0.138372	0.107233	0.0460087	0.0559085	-0.139568	-0.0212494	0.012834	0.134939	-0.072557	0.0194864	0.119619
nanr	0.0474791	0.103726	-0.0485854	0.0775048	0.000704617	0.0312016	-0.156779	-0.0219946	-0.0191496	0.126491	-0.124752	0.00363011	0.0458662	-0.0329475	-0.00385705	0.12732	0.0410998	-0.000216388	-0.143471	-0.0615821	0.0675656	-0.0257841	-0.0376943	0.0192742	-0.00405221	-0.0613587	-0.125575	-0.127347	0.0832601	0.17282	0.00399702	0.0031505	-0.018774	0.052828	0.134561	0.00120349	-0.0224056	0.0713024	0.0086346	0.0579373	0.0430819	0.00978707	-0.024395	0.046982	0.0323861	-0.1466	-0.0249172	-0.166727	0.0585638	0.0702369	0.0163414	0.0227566	-0.00477533	0.0606303	-0.0378437	-0.0417923	0.0355166	0.0104619	0.113775	-0.00336539	-0.0773299	-0.0924687	0.14555	0.0119581	-0.090473	0.0404127	0.0535877	0.0315772	-0.0168206	-0.0105947	-0.028461	0.0184306	-0.00300691	0.0120992	0.0129152	0.231317	-0.0671459	0.0801508	0.0835829	-0.075813	0.0608854	0.0442487	-0.0921697	0.0379734	-0.0742639	-0.0869964	-0.0256313	0.000948587	-0.0600456	0.0260423	-0.0137574	-0.024591	-0.131691	-0.0137287	-0.0335447	0.208934	-0.111509	-0.0804313	-0.069833	0.0426873
argp	-0.0713914	0.0630395	0.0386101	0.0623915	-0.0110336	-7.89594e-05	0.00556952	-0.00905759	-0.135066	-0.0681002	-0.0612377	0.0149944	-0.0187477	-0.0902044	-0.120513	0.0763757	0.00385699	0.0816051	-0.146946	0.039853	0.0780899	0.201086	0.0759865	0.179406	0.0510447	-0.028839	0.000548269	0.00308632	-0.110399	0.100392	0.0978059	0.0506261	-0.119374	0.012442	-0.0389935	0.0630886	-0.0761128	-0.122122	-0.0832427	0.0642931	-0.107413	0.0475523	0.0937535	-0.0849506	-0.0295552	-0.0280558	-0.0203456	-0.0238249	0.0262236	-0.057912	0.0854792	-0.0572737	-0.0653285	-0.0916168	0.0252781	0.054812	-0.0304292	0.134959	0.102327	-0.0910629	-0.0653737	0.0522576	-0.103286	-0.126872	-0.0859546	-0.00942035	-0.102929	-0.0646493	-0.0651594	0.0523791	0.103095	-0.0534516	-0.0549636	0.0152801	0.0173818	0.0342451	0.0129313	-0.0945917	0.034005	0.0142177	0.0638405	-0.106306	0.0331825	-0.137604	-0.0409242	0.0484504	-0.0501097	-0.0958265	0.00299829	-0.0369559	0.0564013	-0.124459	-0.0162029	0.0231265	-0.0019334	-0.0240317	-0.0762251	0.0189387	-0.158703	0.0984043
mlra	0.038802	-0.0925244	-0.0988543	-0.00223125	-0.0804896	0.119424	0.0222841	0.177915	-0.180783	-0.148069	0.0990442	0.10122	-0.0475471	-0.0310455	0.0379412	-0.111694	0.170911	0.0167842	0.056165	-0.0594469	-0.0106585	0.0559327	-0.0115943	0.0486117	-0.0679639	0.00128046	0.0619566	-0.0183519	0.010637	0.132849	-0.0385932	-0.072175	-0.0473153	0.16246	0.0629286	-0.0106154	-0.0336284	0.0127925	-0.183383	0.0714075	-0.0470918	0.0538955	-0.037874	-0.0738631	-0.0588483	-0.00822306	-0.0810945	-0.00334539	0.0758027	0.0315089	-0.0139515	-0.06704	-0.12844	0.0801837	0.0537709	0.135032	0.021489	0.119614	0.141668	-0.0847663	0.0490271	-0.0287638	0.0977671	5.6824e-05	-0.0294348	0.157312	-0.0392365	0.0293125	0.0685726	-0.0808465	0.0123488	0.0747168	0.000609667	-0.122306	0.00854185	0.0792754	0.0863555	-0.0994204	-0.0368784	-0.0468957	0.0500768	-0.0813643	0.0548919	-0.0683017	-0.0568647	0.154959	-0.105596	0.108655	0.0378046	-0.0512137	0.0245409	-0.116858	0.0394692	-0.0802948	-0.0611209	0.036707	0.0242544	0.0347081	0.0069673	0.0290739
fadr	0.147153	0.0614206	-0.00631191	-0.00534808	-0.105548	-0.124762	0.0203809	-0.0141731	-0.0513087	-0.0291234	-0.157513	-0.0888736	0.0696261	-0.0240908	-0.0349334	0.0317464	-0.00618928	-0.0903472	-0.0462844	-0.126504	-0.0195939	-0.0665121	-0.0754558	0.0909616	0.0826575	0.010906	0.0162852	-0.00640755	-0.214023	0.0316965	0.0125635	0.143173	-0.0125198	0.0423017	-0.00813664	-0.00970497	-0.0233607	-0.0168429	0.039934	-0.0541354	0.0179253	0.106486	0.12265	-0.0198338	0.0148702	-0.011674	-0.0115051	-0.0496603	0.0368901	0.00717723	-0.00873939	0.0125405	-0.0714238	0.0522662	-0.00428208	-0.114275	0.151713	-0.0848858	0.0178222	0.020584	-0.129695	0.0747937	-0.0570717	-0.126654	0.0131123	0.0688411	0.0165029	-0.104798	-0.0510708	-0.0872028	-0.0330917	-0.0521273	0.0821141	-0.00121896	-0.0181275	0.0492753	-0.0613507	0.000146131	-0.0174839	-0.0348394	0.0111216	-0.153805	-0.0107392	-0.0560358	0.081818	-0.0257062	-0.0537189	-0.132284	0.0927568	0.0216962	0.0786401	0.0371856	-0.0377183	-0.193708	0.0244397	-0.0808818	0.0276289	0.0302017	-0.101316	0.000397175
rcsb	-0.0127778	0.0655371	0.147938	0.055612	0.0212714	-0.121757	0.0450503	0.132354	0.00924124	-0.0225489	-0.0230458	-0.059426	-0.0707307	0.0600267	0.0295712	-0.0467995	0.0534355	0.0943722	-0.0395143	-0.0410501	0.0622654	0.0531537	0.125373	0.05043	0.127608	-0.0808496	0.023347	0.000560849	-0.077497	-0.0535624	-0.000978093	0.119598	0.0394039	-0.102037	0.00211086	0.0300338	-0.0370063	0.0580018	-0.0916902	-0.0171012	0.198212	-0.137482	0.173777	0.0446355	0.018061	-0.1598	0.0832343	-0.0856335	-0.062527	-0.0917345	-0.0695315	0.0119606	-0.109564	0.0578183	0.0395065	0.0840779	0.090639	0.0619444	-0.0152958	-0.0187924	0.0329104	0.0220285	0.0462529	-0.0466974	-0.0546669	-0.0580437	-0.085891	-0.020469	0.00182596	-0.0717779	0.121106	-0.108977	0.0217613	-0.0120109	0.0673045	0.244092	-0.111752	-0.119634	0.107155	-0.0879793	0.0754507	-0.076632	-0.0328929	0.0165256	0.00144431	-0.0394592	-0.0189637	0.145747	0.0699998	0.0971103	0.0359628	-0.0143912	-0.0595103	-0.00857475	-0.158254	-0.131009	0.102448	0.0348665	0.0717635	0.025009
chbr	-0.0134293	0.0787011	0.0153305	0.134499	0.0137887	-0.0692228	0.00755405	-0.0639391	-0.0640479	0.0138058	0.112179	-0.0252106	0.00980577	-0.0459612	0.0411229	0.0423139	-0.00133675	0.0952571	0.0532998	-0.0533604	-0.0551905	0.0218864	-0.0419405	0.082424	-0.0299425	0.0378867	-0.0307031	0.0102913	-0.037455	0.0444179	0.0274896	-0.0952849	0.0119587	0.0976517	-0.144398	0.0471922	-0.055447	-0.00629749	-0.128848	-0.0707908	0.01792	0.0359328	0.00914448	0.0218791	-0.0389976	-0.105746	-0.0668926	-0.0997991	0.000706482	-0.0293614	0.0036641	0.0447936	-0.125212	0.0998242	-0.00588251	-0.0210442	-0.0197901	0.0686898	-0.0298685	-0.0455363	0.0535906	-0.0376038	-0.0441637	0.00985244	0.0429445	-0.113326	0.0165447	0.0152503	-0.0673981	0.0270508	-0.0483057	0.00879815	-0.0381679	0.0755237	0.123716	0.0144188	0.0510153	-0.0838319	0.0327571	-0.0827719	-0.0231993	-0.102956	0.000235545	0.0473251	0.114459	0.0516848	-0.0650778	-0.0055808	-0.0653597	-0.0497913	0.0912032	0.112565	-0.049395	0.0301878	-0.0972925	-0.137293	-0.0852717	0.15415	-0.0189354	-0.124545
cbl	-0.1068	0.0848193	-0.0389147	0.144804	0.0501618	0.032401	0.0323653	0.00808457	0.0108712	-0.000526089	0.0525579	-0.0205749	0.000159549	0.0624436	-0.0164677	-0.00954123	0.0204578	-0.0321299	-0.0586167	0.0338517	0.0726811	-0.0382091	-0.0531923	-0.0245912	-0.0974068	0.00578485	0.0256808	-0.0651865	-0.0204859	0.00763729	0.198442	0.11256	-0.0480924	0.00118277	-0.0320354	0.0922566	-0.126118	0.102284	0.0408576	0.0834472	-0.0260523	0.0267667	0.07422	-0.0866358	0.000628354	0.0249384	-0.110457	0.128705	0.0635036	0.00465933	-0.00943141	-0.0961425	-0.0824777	0.00853384	-0.142704	-0.0776758	0.181596	0.118215	0.115508	-0.099163	0.0744747	-0.0483402	0.0475604	-0.061424	0.116776	0.0577068	0.125707	0.13998	-0.0696292	-0.0599338	-0.142389	0.0704511	0.00695335	0.0548241	0.116605	0.0359588	-0.00604058	-0.0447428	0.0165813	-0.0261663	0.0383236	-0.0796028	-0.022395	0.109989	-0.0348765	0.106216	-0.0622756	-0.023838	0.0180771	-0.0563724	0.0430307	0.0304782	0.0723912	0.0435122	-0.0195549	0.108303	0.139596	-0.0808017	-0.0105849	-0.0158671
csgg	0.00850484	-0.0177453	0.0305023	0.00764146	0.0131554	0.032521	0.0266287	0.0199644	0.0865485	-0.0800211	0.00218641	-0.0589995	0.0132378	-0.117877	0.0231333	-0.0719153	0.116399	0.0120042	0.00224915	-0.0325351	-0.0398901	-0.0141325	-0.104089	-0.049557	-0.0972506	0.0378898	-0.0541953	-0.0256934	0.000712067	0.00623172	-0.0775184	-0.118511	-0.0487507	0.0558318	0.142019	-0.0732463	-0.00310106	-0.0276781	0.0357651	0.0109777	-0.11858	0.0757467	-0.110038	-0.0218847	-0.119038	-0.000746065	-0.0206193	0.0533287	0.131143	0.0622784	0.0203467	-0.0456191	-0.0229966	0.0817215	-0.128929	-0.052477	-0.0685074	-0.059023	0.0716307	0.0277329	0.0433091	-0.00177675	-0.036072	0.051625	-0.0951582	0.0680261	0.0444679	0.0245069	0.0188094	-0.0120532	0.0765409	0.0530382	0.0291368	-0.105371	-0.0407968	0.0497739	-0.0219503	-0.0122395	-0.0979423	0.0194166	0.0465344	-0.0649633	0.0762595	0.0100746	0.0270568	0.0106817	-0.0874896	0.00668437	-0.0689632	0.0159811	-0.0215436	-0.0481527	0.00519753	0.0693198	0.0504031	-0.143611	0.0987919	0.0752151	-0.0946758	-0.0435622
glpr	-0.0844109	-0.0129529	-0.0894784	0.00644859	-0.0441946	-0.0249833	-0.114243	-0.0811468	-0.0137724	-0.0554706	-0.0975305	0.0729269	-0.084783	-0.0720745	0.0293215	-0.0706562	-0.181983	0.000238957	-0.0143727	0.00521436	-0.0601849	0.0957704	0.0416755	0.23043	-0.0353012	0.107725	0.182541	0.0197337	-0.0938041	0.18247	0.0831937	-0.0758793	-0.117089	0.00777917	0.0116538	-0.00755354	-0.10782	-0.069809	-0.125301	-0.046404	0.00885123	-0.020189	0.188101	0.062533	-0.0561052	-0.0230507	-0.0231748	-0.0918411	-0.0817341	0.139185	-0.00206861	0.0980115	-0.0345396	0.150109	0.0504538	-0.159183	0.0872975	0.117879	-0.144787	-0.0615934	0.00438845	-0.0673053	0.0418517	-0.0525137	-0.0671353	-0.0245705	-0.0928955	-0.0303363	-0.0644295	-0.12843	0.00742846	0.0169447	-0.0454204	0.0470243	0.0364907	-0.00396057	0.133522	0.104094	0.0736208	0.0510091	-0.107762	-0.0118452	-0.0440081	-0.0551617	-0.0619879	0.0109224	-0.0814171	0.079197	-0.0766778	0.0179991	-0.0189206	0.176704	0.040546	-0.0631803	0.0156235	0.0642799	0.060562	-0.0298235	-0.0455603	0.0770441
caif	0.0246075	0.0248306	-0.0200922	0.112212	0.0522033	0.0238103	0.0339702	-0.0301021	-0.00513129	0.0128768	0.0316744	0.0634295	-0.0310523	-0.0211247	0.023061	0.0675756	-0.0588472	0.0843949	0.0289363	-0.0413672	-0.0416622	-0.000457662	-0.0554505	-0.0160984	0.0776981	0.0899844	-0.0306842	-0.000189328	-0.13404	0.0380973	0.120129	0.00960222	-0.0710771	-0.0289392	-0.0569053	0.0745942	-0.033484	-0.0371126	0.0903034	-0.0170942	-0.0212341	0.0449561	0.0567655	0.0715547	0.0316501	-0.0886605	-0.025048	-0.146076	0.0167359	0.139508	-0.00159957	0.0495265	-0.106069	0.114197	0.0264156	-0.0301798	0.136429	0.0573502	0.0722103	-0.0299458	-0.0159456	-0.00489097	-0.0763372	-0.065023	-0.141853	0.0177838	-0.0165674	-0.143996	-0.0388776	0.0185556	-0.0325166	0.0288782	0.0840251	-0.047101	0.0419361	0.0205498	-0.161794	0.0662187	0.0213756	-0.0403646	0.0607689	-0.0743736	0.0833464	0.00702688	0.0299669	-0.0323062	0.0316046	0.0915072	-0.0539848	-0.00207316	0.0469857	-0.0325132	-0.128879	0.0295143	-0.040949	0.0364726	-0.0431181	0.07854	-0.0156312	0.010857
csgf	0.0103712	-0.0450413	0.024562	0.0121889	0.0208124	0.0213007	0.0196174	0.0140031	0.0834272	-0.0789675	-0.000804329	-0.0574174	-0.00242623	-0.120328	0.0145065	-0.0762236	0.114142	0.0324704	0.00408196	-0.0269911	-0.0473496	-0.00426459	-0.0981107	-0.0584201	-0.104262	0.0372484	-0.0694511	-0.0322763	0.000372529	0.0096738	-0.0649682	-0.123787	-0.0568501	0.0439943	0.149255	-0.0920803	-0.00801437	-0.0250837	0.0297683	0.00814955	-0.128519	0.0788976	-0.113301	-0.0206352	-0.117037	-0.00865677	-0.0151444	0.0378629	0.133139	0.0628749	0.0212953	-0.0528298	-0.0170783	0.0739305	-0.112792	-0.0508017	-0.0784369	-0.058746	0.0555883	0.037645	0.0430529	0.00368514	-0.0543169	0.0468468	-0.10658	0.0556166	0.0338471	0.00352053	0.0150113	-0.0190521	0.0871071	0.0502848	0.0113008	-0.121049	-0.0387636	0.054389	-0.0193767	-0.0197111	-0.0901476	0.0131709	0.0468164	-0.0611265	0.0818456	-0.00444258	0.0239791	0.0142672	-0.0980822	0.0144965	-0.055647	0.027638	-0.00559879	-0.0815871	0.0116347	0.0575089	0.0544355	-0.148428	0.098915	0.0852728	-0.103994	-0.0358303
csge	0.0165498	-0.0152835	0.028674	0.00398524	0.0142651	0.0332112	0.0120782	0.0150974	0.0917403	-0.0880565	0.0137336	-0.0555072	0.0228728	-0.110716	0.029015	-0.0681605	0.111812	0.0154221	-0.00311157	-0.0208608	-0.029537	-0.018449	-0.0931297	-0.0441411	-0.104549	0.0459253	-0.0410439	-0.0055062	0.00628054	0.00755418	-0.0741573	-0.118242	-0.0371291	0.0820458	0.155493	-0.077677	0.000831856	-0.0274123	0.0442717	0.00907919	-0.112477	0.0824491	-0.109534	-0.0157646	-0.122268	0.00246956	-0.0261116	0.0666348	0.138887	0.0579625	0.00667907	-0.0446173	-0.023539	0.0726369	-0.110904	-0.0560113	-0.0687036	-0.0665433	0.053748	0.0440906	0.0449778	-0.00982062	-0.030909	0.0395507	-0.0894434	0.0572189	0.0324924	0.0276358	0.0222022	0.00843054	0.0771058	0.0512601	0.0206361	-0.10588	-0.0477888	0.0365499	-0.0305996	-0.0104596	-0.0817103	0.0305871	0.0418072	-0.0635859	0.0832382	0.00803114	0.0213777	-0.00289492	-0.0807918	0.0192799	-0.0544848	0.016731	-0.0153032	-0.062693	-0.00536628	0.0683313	0.0562317	-0.14074	0.089476	0.0716229	-0.0891083	-0.0291187
nagc	-0.0523367	0.0876676	0.0540918	0.113802	0.0179595	-0.033704	0.0258365	0.0265991	-0.080463	-0.030359	-0.0122979	-0.0878024	0.0770795	-0.046631	-0.0423961	-0.00446945	0.121201	-0.0623115	-0.0430771	0.0164031	0.0361956	-0.00730391	-0.0886936	0.104534	0.0215683	0.0903214	0.0562899	0.0863599	0.0664605	0.0819822	-0.0202811	0.0294289	-0.0266405	-0.0615453	0.0131622	0.0243616	-0.227402	0.0863841	0.047424	-0.078823	-0.14336	-0.0966608	0.0380656	0.135988	0.0328888	-0.0232212	0.136619	0.0209151	0.0213936	0.0201582	-0.00371769	0.0770612	-0.160024	-0.0373562	-0.0752364	0.0545345	-0.00821259	-0.0120011	0.0207351	-0.0520134	-0.0476273	-0.18533	0.100392	-0.0104679	-0.063541	-0.00124797	0.0568469	-0.0385592	0.121248	-0.00832789	-0.0412032	0.0893753	0.00463724	-0.0255926	0.0417197	0.123691	-0.0674688	0.0484362	-0.0685777	-0.0289433	0.0167741	-0.191491	-0.0529079	0.0615236	-0.016395	0.0157478	0.0443425	-0.11431	0.149786	-0.0595372	-0.10013	0.0530241	-0.113039	-0.0634731	0.0219628	-0.0092904	0.0161207	-0.0446631	-0.135309	-0.0389872
sgrr	0.113326	-0.037158	0.0442756	0.124313	-0.0237667	-0.0422117	0.023425	-0.1114	-0.0719882	-0.0268221	-0.0441956	-0.0524827	0.0401684	0.06082	0.00503046	0.0737642	0.00577663	-0.143553	-0.0856224	-0.0804957	0.0709383	-0.0358225	-0.0302641	0.00554698	0.0602523	0.0736177	-0.0214851	-0.0217207	-0.0764152	-0.058106	-0.0342726	-0.0452581	-0.0632946	-0.137168	-0.0334733	-0.104792	-0.0687787	-0.084399	-0.0927957	-0.104049	0.120209	-0.0419066	0.0146241	0.0685183	-0.0293306	0.0980513	0.0439068	-0.0525651	0.0165408	0.165729	-0.0413634	0.0949762	-0.110661	0.0183382	-0.127875	-0.00904513	0.0690349	0.0416019	-0.0148288	-0.0680952	-0.0743023	-0.0725402	-0.112663	-0.0597688	-0.108033	-0.0133508	0.0993371	-0.0661124	0.0974333	-0.0101427	0.121181	0.064784	0.00875017	-0.00719287	0.248956	-0.0156041	0.142844	0.0179689	-0.00899981	-0.0910363	-0.01011	-0.0586803	-0.00728977	-0.0247398	0.0169674	0.0953065	0.104495	0.112051	-0.00414189	-0.0364501	0.0183607	-0.00658169	0.0253562	-0.0664862	-0.054267	-0.0405706	0.0309718	0.0300951	-0.0616052	-0.00810201
tyrr	0.0446646	0.156242	0.0868855	-0.0257264	0.0248757	0.0395649	0.0710364	0.0605092	-0.0754132	0.00645997	0.0865425	-0.0269161	0.158444	-0.0682532	0.0873012	0.033443	-0.181233	-0.102218	-0.0393672	-0.00959105	-0.00146922	0.0414855	0.129536	0.116032	0.0215985	-0.0504835	-0.00618421	-0.144517	-0.0440444	-0.0223542	-0.0183275	0.119097	0.105412	-0.0108715	-0.0546084	0.042889	-0.0925102	0.000307167	0.100617	-0.0535167	-0.00140746	-0.0313377	0.00594892	0.0673801	-0.0162335	-0.000492789	0.000715933	0.0635304	0.00225007	-0.0956273	-0.0387071	-0.0180084	-0.09492	-0.0160901	-0.0589016	-0.0230834	0.0965659	-0.0226808	0.0994786	0.0509097	0.0336688	-0.102971	0.0543773	-0.00191719	-0.132513	-0.0544885	-0.0317732	0.101234	-0.012841	-0.0275188	0.0144324	-0.0341087	0.0734224	-0.0659551	-0.0521472	0.0664846	-0.0741254	0.00309434	0.0439074	-0.0352627	0.0477902	0.0447935	0.0394758	-0.0288244	-0.0761057	-0.0757278	-0.112626	0.0730842	-0.011736	-0.0234412	0.0935385	-0.0641065	-0.000656291	-0.138097	-0.0397708	0.0722384	0.0482984	0.023786	0.0853988	0.067974
gade-rcsb	0.0482598	-0.0487793	-0.0329007	0.0457176	-0.138468	-0.065267	0.141109	0.080603	0.0174464	0.0185534	0.0161194	-0.0484539	0.0520811	0.0376914	-0.0859372	0.000913069	-0.0245344	0.143192	-0.041291	-0.0305142	0.0502654	0.153618	0.0670538	-0.0292114	0.150977	0.0422127	-0.193821	-0.00339668	-0.0165516	0.0491213	0.102742	0.126486	-0.0512554	-0.0278174	-0.0149388	-0.0526448	0.0606659	-0.0652423	-0.0504343	-0.0246637	0.0372579	-0.113422	0.0372266	0.0239561	-0.0909896	-0.104987	0.0928727	-0.118676	0.0783921	-0.0447273	0.135839	0.0141044	-0.0615696	-0.0936312	0.134726	0.067651	0.159769	-0.0949668	0.0641758	-0.0853304	0.0457439	0.0440672	0.00648995	-0.0163822	-0.0963899	0.0507689	0.1015	-0.183677	-0.0017997	-0.116484	0.130632	-0.134285	-0.06495	-0.0541325	0.045338	0.0630856	-0.0964578	-0.146552	-0.0380205	-0.0573922	-0.0312475	-0.124972	-0.00446768	0.116725	-0.00102151	0.0619827	0.0315499	0.109241	-0.0443004	-0.141266	-0.0243692	0.0450554	0.135864	-0.0125948	-0.167115	0.0384986	0.105139	0.116942	-0.0532801	-0.0592238
rcda	0.151324	0.0147324	-0.0456017	0.0858973	-0.00859315	-0.0802895	0.071806	-0.0170774	0.0184858	-0.0136172	0.00371347	-0.07183	-0.0410299	-0.102013	0.0670901	0.0261987	0.0648015	0.0441557	-0.00400996	-0.0801983	-0.043432	0.0295297	0.0704632	0.0597833	-0.109254	0.14693	0.105025	-0.0820033	-0.0822316	0.114733	0.0352282	-0.0491389	-0.194046	-0.0314938	-0.105511	0.0126513	-0.0242757	0.0772718	-0.0881549	0.079221	-0.089815	-0.00359708	-0.102338	0.0905236	-0.0410033	-0.0664524	-0.0074719	0.00558957	0.0941153	0.0460173	0.0478802	0.0343801	-0.0220171	0.0184173	0.0594386	0.107872	-0.0404769	0.0503299	0.0407811	-0.0560008	-0.0244326	0.0071957	0.0596994	0.0595593	-0.0183426	0.100631	0.0477563	0.0499846	-0.0286001	-0.0330154	0.0482019	-0.0325408	0.143547	-0.0888915	0.0670603	-0.00574895	0.0170266	-0.0955318	-0.121785	0.067688	-0.00572417	0.0508032	0.114373	-0.0571432	-0.0240272	0.00485008	-0.0836539	0.0871268	0.0832678	-0.0310767	0.0759088	-0.0478035	0.0446269	-0.0677092	-0.0735829	0.0493373	0.0372736	-0.0411033	-0.100705	0.0562105
adiy	-0.105506	0.0115906	0.0409178	0.103835	-0.093665	-0.0872126	-0.0260856	0.0948121	-0.0207238	-0.0147625	-0.00463361	-0.00253355	-0.0386057	-0.081947	-0.0488856	-0.0610894	-0.0693867	0.0491769	-0.0089695	-0.0570681	0.0282786	0.141352	0.182419	0.103866	0.07768	0.0126036	0.0295547	-0.00516538	-0.0586865	-0.0329752	0.123472	0.207653	-0.0251668	-0.0714008	-0.129351	-0.0267869	-0.0180783	0.000617664	-0.0518842	0.0890923	-0.0143029	-0.0709346	-0.0244673	0.0860721	-0.0692203	-0.0585851	0.00550678	-0.0487114	-1.90802e-05	0.0303955	-0.0147576	0.0204418	-0.056644	0.0203669	0.113913	0.0062888	0.24919	0.070095	-0.00399487	-0.0306999	-0.0240847	0.191018	0.0331813	-0.146336	0.0445623	0.0558079	-0.0672374	0.0613814	0.0324103	-0.0568304	0.0433664	-0.0361451	0.0408051	-0.0135871	-0.0342648	0.0788603	-0.0894375	-0.107818	-0.075298	0.0457114	0.00961853	-0.121172	-0.0106795	0.107607	-0.0652793	0.0430158	0.0729023	0.130387	0.01948	0.0350238	0.0324963	-0.0060971	0.125184	-0.0349343	0.0152922	-0.100638	0.138334	0.0669526	-0.0216344	0.116248
nrdr	-0.0575665	-0.00631472	0.0368652	0.0460158	0.0694521	0.0749872	-0.0360956	0.0102975	-0.0330357	0.0150306	-0.147596	0.000218926	-0.112124	-0.150775	-0.163806	0.0198395	0.0555467	0.0546793	-0.0311471	0.0671253	0.151304	0.0566037	-0.108332	0.00206591	-0.0722196	-0.0364792	-0.0596053	0.0420807	-0.013357	0.12642	0.0308694	0.0118322	0.0482012	-0.0869229	0.0396382	0.0211219	-0.00659917	-0.131051	0.00185583	-0.113758	-0.0224994	0.132883	-0.153752	0.0214478	0.0754048	0.0477042	0.01866	-0.122562	-0.00988431	-0.0347528	0.036554	0.0871393	-0.145807	-0.0466266	-0.0633387	0.0188547	0.11188	-0.0256688	0.0425934	-0.108302	-0.118448	0.0460085	-0.117619	-0.0511427	-0.156652	0.0476627	-0.0804507	-0.0671443	-0.0614861	0.00935283	0.0529824	0.0686783	0.0543498	0.0219465	0.138155	0.0968008	0.0319408	-0.0327996	-0.00679298	-0.0722374	-0.0352696	0.00587767	-0.123483	-0.122227	-0.0883051	-0.0487783	0.00352147	-0.00681944	-0.132129	0.0210777	0.0749803	-0.108554	-0.0656416	0.0242826	-0.0628968	0.0819978	-0.133959	0.0200452	-0.138082	0.135935
mqsa	0.0461851	0.0722254	-0.0254235	0.0197172	-0.0176541	0.0758323	0.0564218	0.0778296	-0.0295087	-0.0352758	0.0647404	0.0444583	-0.0256323	-0.0512777	0.135018	-0.0952168	0.174178	-0.0363033	0.0465843	-0.0225795	-0.0589842	0.0717164	-0.126247	0.157677	-0.0813161	0.134122	0.0526226	-0.0185669	-0.0625009	0.0798227	-0.0804312	-0.0374282	-0.210984	0.0464742	0.0106576	-0.0174518	-0.00621917	0.110595	0.0224134	0.0666295	-0.048355	-0.0340003	0.00984858	0.106535	-0.149417	-0.104458	-0.160532	0.0364977	0.0806927	0.0915878	0.136925	-0.0424376	0.0175537	-0.0199409	0.006278	0.0249032	0.0211712	0.0645728	0.232535	-0.124867	0.0496649	0.11361	0.0201281	-0.00704507	-0.0303336	0.0837495	-0.0289795	0.0516655	0.0219087	-0.0345632	0.0505588	0.0931121	0.146795	-0.177226	-0.0186989	0.197748	-0.078687	0.0845604	-0.174261	-0.0541981	-0.0161407	-0.0158331	0.0696062	-0.0708	-0.128017	-0.0143873	-0.104537	-0.0601117	-0.0563177	-0.024222	0.107077	0.0242792	0.0455578	-0.0420937	-0.0360846	-0.155672	-0.0701598	-0.0527237	-0.123507	0.0610925
arac	-0.00370296	-0.175257	0.019872	-0.180434	0.0145959	0.0804247	-0.0102143	-0.108509	0.0346233	-0.00506172	0.0407519	0.0312728	0.0341452	0.00826463	-0.00942027	0.089029	-0.0121289	-0.0720128	-0.142694	0.0684704	0.0653197	0.0985517	0.0584895	-0.0538375	0.0657771	0.115729	0.0442093	0.0500238	-0.127025	-0.0937658	0.104707	-0.130081	-0.0122654	-0.0118753	0.11639	0.0763444	-0.0712623	-0.145448	-0.0350277	-0.0794479	0.103316	0.165653	0.0719079	-0.0365809	-0.0434788	-0.0445547	-0.0987204	-0.0536236	-0.0558465	0.0590302	-0.0703577	-0.0516526	0.0336168	-0.0134327	0.164225	-0.073301	0.0628921	0.149242	-0.144998	0.0151914	-0.0105243	-0.08513	-0.0116599	-0.0822207	-0.0442069	-0.0563656	-0.0601392	0.0635069	-0.0838992	-0.00990896	0.0892865	0.0353023	0.0503319	0.0501077	-0.126418	0.0187356	0.164442	0.0769062	0.103477	0.0612929	0.110405	-0.0398601	-0.122765	0.02363	-0.104397	-0.107656	-0.17127	0.179666	0.0200653	0.107247	0.0744223	0.0457746	-0.175322	0.0176131	-0.070498	0.038514	0.0278624	-0.0768139	0.0481009	-0.165416
mata	-0.0108054	-0.0761135	0.00595426	0.135979	0.0490603	-0.036688	0.0670119	0.15147	0.027032	-0.00360205	-0.119974	0.0614299	0.0422694	0.0366702	0.0362795	-0.0120206	0.118813	-0.220847	-0.0436651	0.00106366	-0.0241592	-0.0126754	0.0331935	0.0183171	0.0186258	0.12143	-0.151217	-0.104692	-0.0705708	0.030046	-0.096952	-0.0889632	0.00377268	0.0146946	0.0338281	-0.0843053	-0.109953	-0.040905	-0.156903	-0.0883612	-0.0412956	0.0462139	0.0893868	-0.165519	-0.148017	-0.0936107	-0.140751	-0.0334782	0.170772	0.100686	-0.0429317	-0.0607017	-0.206706	0.088351	-0.0252177	-0.0774423	0.00772708	0.112562	-0.0743399	-0.0151408	-0.0137475	0.00669674	0.00920087	-0.184429	-0.199213	-0.0587317	-0.0920427	0.00886504	0.0449823	-0.0561843	0.00308842	-0.102583	-0.0188976	0.016418	-0.00778859	0.216113	0.0222388	-0.0593103	-0.0334325	-0.192684	0.054386	-0.100607	-0.139252	0.0646274	-0.0372152	0.0408311	0.0577623	0.112892	0.0338535	0.104602	0.0176732	-0.183144	0.0896173	-0.0290604	-0.0164309	-0.0531529	-0.0966981	0.0808619	-0.0213083	-0.0909858
galr	-0.00761919	0.00822094	0.165719	0.0125183	-0.0281579	0.0883947	-0.00377031	0.0228977	-0.100611	-0.0149677	-0.0640661	-0.0808892	-0.0417537	0.0391909	0.044608	0.0416578	0.0564084	-0.0309128	0.0244672	-0.0749853	-0.0830072	0.0682433	0.0321598	-0.0831634	-0.0427522	0.0527698	0.0830707	0.087169	0.0484614	0.16762	0.0686955	-0.0109578	-0.019214	0.00482353	-0.105872	0.134058	-0.00971929	0.0239256	0.0966213	0.0565189	0.0816382	0.0566645	0.0729252	0.0333126	0.0387619	0.0539453	0.00369476	0.0242514	0.00780496	-0.0698304	-0.0273107	-0.131798	-0.116376	-0.143258	0.108628	-0.116765	0.184237	0.0525156	0.0169338	-0.000186675	-0.0564682	0.1339	0.081911	0.0165084	-0.0977976	0.0604883	-0.0577678	-0.0282641	0.0228118	-0.0423713	-0.08371	0.0201643	0.131048	-0.0523271	0.0280513	-0.0473413	0.0341228	-0.0184003	0.0332655	-0.028976	-0.0584856	-0.0686997	0.0414837	-0.0296615	0.0359401	-0.0189862	-0.051771	0.15137	-0.128602	-0.089597	-0.051533	0.0502836	-0.0321613	-0.04187	-0.0176826	0.0396879	0.104398	-0.00773116	0.0146697	-0.0615764
pgrr	-0.00529023	0.00564336	0.0190732	-0.0235075	0.0248524	-0.0422907	0.0708945	0.028098	-0.00580341	0.106695	0.0554424	-0.154556	0.0924124	0.0482614	0.00703991	0.0622151	0.00765983	-0.0464301	-0.0535421	-0.0689422	-0.0125302	-0.0165893	0.0244035	0.0731609	-0.0916261	-0.100227	0.00718211	0.0163666	-0.0243968	0.0589709	0.0167744	0.0416164	-0.273949	0.0059657	-0.130007	0.157902	-0.177753	-0.0565623	-0.0713055	-0.0540873	-0.0502377	0.0719893	-0.0144993	-0.0295978	0.0231342	-0.0894265	-0.102669	-0.00390147	-0.0292346	0.086777	-0.0677632	0.0713556	-0.0450168	-0.0208897	0.0601065	-0.131378	0.125179	-0.0198868	0.0129149	-0.10307	-0.00768873	-0.0313947	-0.0395638	0.0834349	-0.143016	-0.0656528	0.105155	-0.0132433	0.0221246	0.0265959	-0.0208495	-0.0723946	-0.0230798	0.0293262	-0.0547043	0.0435515	-0.0332204	-0.022263	0.0363024	-0.0683756	-0.157518	0.0108561	0.0820256	0.0391709	0.00635567	-0.0647489	0.0152976	-0.0243313	0.0947923	-0.0556881	0.107198	0.0727376	0.0880047	-0.072678	-0.191777	0.0272914	-0.0475051	-0.0401543	-0.0493413	-0.0444924
puur	0.0482241	0.0473551	-0.018871	0.091762	-0.00516964	-0.068201	0.0887085	0.00979264	-0.0714751	0.0228412	-0.0464934	-0.0502446	-0.0241729	-0.0336017	0.0629738	0.125081	0.0717983	0.0150796	-0.0303388	-0.00574563	0.015926	-0.0158298	0.0826633	0.171849	0.0299302	0.00190121	0.0315266	0.0752577	0.0248631	0.0478709	-0.0220771	0.0539266	-0.0584617	0.066879	0.0546275	0.0677404	-0.0484019	0.0271018	-0.120708	0.0492545	0.0980582	-0.136476	0.092446	-0.141637	0.0152998	-0.0131686	0.0305449	0.020069	0.13742	0.0150467	0.0365341	0.0662651	-0.0513741	-0.0188224	-0.0180567	-0.138973	-0.108558	-0.0324976	0.0597466	0.0349587	0.130056	-0.0216941	-0.00544236	0.00372924	-0.107396	-0.167294	-0.0709708	-0.0945154	-0.0639564	0.0901111	-0.0573755	-0.0761432	0.120001	0.0544635	0.0708323	-0.0211421	-0.0381441	0.0265115	-0.0249557	-0.0689946	-0.0205456	0.0803864	-0.0165292	-0.0561111	0.0179135	-0.0919679	0.0360713	0.000727476	-0.100266	-0.102438	0.0635879	-0.055452	-0.00150287	-0.133912	0.0167821	-0.026925	-0.0377339	0.0217061	0.0193944	0.0543032
cusr	-0.0122994	-0.125311	-0.0132543	0.0545033	-0.00590013	-0.079399	0.00450251	0.0015664	-0.0950589	0.0223169	-0.031277	0.0789458	0.0404433	0.0232969	-0.197275	0.0165843	0.0419038	0.105628	-0.0192321	0.00355162	-0.00214253	0.0370911	-0.161448	-0.0145907	0.0155578	0.143856	0.0147397	-0.0769707	-0.0300198	-0.0123376	0.0378461	0.047703	-0.0336521	0.000424543	0.0171972	-0.123973	-0.0877082	0.00229587	0.052235	-0.0764046	-0.0166016	0.00863927	0.0400841	-0.0936746	0.0151208	-0.00483822	-0.0154351	-0.0395276	-0.118086	-0.00636329	0.0359019	-0.050866	-0.0211064	-0.0140302	0.167209	-0.0520157	0.045012	0.0557104	0.0607298	0.179411	-0.167615	-0.0661325	0.191264	0.0196667	-0.00221903	0.212568	-0.00575822	-0.0486156	-0.0311507	0.0745063	0.0142133	0.113479	-0.0366655	-0.0526837	0.0286214	0.026569	0.177105	-0.134389	0.0863309	-0.116943	0.0262026	-0.0736612	-0.0535691	0.00546322	0.0478451	0.0424194	-0.0828728	-0.00665063	-0.0663687	-0.0943175	0.056379	-0.134367	-0.0349497	0.0442168	0.0710181	0.0174301	0.148151	0.108956	0.17188	-0.0223161
ular	-0.0113803	0.00998567	-0.0290741	-0.0667029	-0.119571	-0.0494041	-0.00128456	0.0563561	-0.0102128	-0.0330739	0.0243784	-0.0517997	-0.0477079	0.0333749	-0.10792	0.0563736	-0.0757508	0.0633416	-0.074807	0.0275617	0.0111958	-0.0701321	-0.0321539	-0.0730146	0.0281159	-0.0623324	-0.0118535	-0.097166	0.0397517	0.122103	-0.0547661	0.0557564	0.0147893	-0.0435892	-0.0835626	0.138134	0.100346	-0.102617	-0.00319694	-0.0192145	0.0232434	-0.176837	-0.00448181	0.0325377	-0.000664931	0.0419443	-0.0463566	0.0872083	0.0423485	0.107279	-0.0649435	-0.00974527	0.0100326	-0.036902	-0.0606661	-0.116746	-0.0651302	-0.0975434	-0.0479477	-0.128554	-0.0751123	-0.0322583	-0.0453679	-0.0188515	-0.135488	0.0369095	0.0216257	-0.0118281	-0.0735837	0.0138137	-0.152689	0.0878615	-0.0635129	-0.00552586	0.0366948	0.0257267	0.1029	0.0630528	-0.0838703	-0.0321149	-0.074846	-0.132361	-0.0182795	-0.0111201	-0.0010308	0.179004	-0.101968	-0.0296545	0.0504223	0.242123	0.02957	0.0448278	0.086061	-0.0279634	0.0448553	-0.0126889	-0.0619267	-0.0101104	0.0737239	-0.0448676
gadf	-0.0700579	-0.149174	0.00431813	0.0381413	-0.0543421	0.0515069	-0.0364496	0.0748344	0.000695017	0.0570654	0.0456127	0.144772	0.100012	0.0474567	0.0175873	-0.152375	0.0283602	0.129442	0.00689419	-0.00771035	0.0388562	0.024009	0.0628675	0.0334019	0.106436	-0.0519969	0.0376576	0.0557108	-0.0587036	-0.0891097	0.0483876	-0.0236948	-0.0166128	0.0655846	0.127925	-0.0306621	-0.00184884	-0.0542744	0.0394593	0.0332326	0.00883142	0.061118	0.0573479	0.0109068	-0.0296449	-0.0494064	-0.0697037	-0.00882173	0.118995	-0.0284813	-0.109295	-0.088594	-0.0882064	0.0454474	0.15037	0.068809	0.0996796	0.113909	-0.0310463	-0.0195974	0.0315673	0.103219	0.138812	-0.265127	-0.0681192	-0.00534191	-0.0867156	-0.0678611	0.0182573	-0.00309631	0.16422	0.0310798	-0.054052	-0.0756038	-0.114244	0.207599	0.00678399	-0.0673186	-0.00795432	-0.0297693	-0.113203	-0.0521169	0.0403621	-0.105931	-0.0457093	-0.0173929	-0.0345102	0.133181	0.0626255	0.0635579	-0.016679	-0.0193988	0.136695	0.0165366	0.076891	-0.0084756	0.0121299	0.00104932	0.0884176	0.0226321
flhc	-0.0324045	-0.0884004	0.0245056	0.00685062	0.0485798	0.0741885	0.0105968	-0.0549354	-0.0155136	-0.11159	-0.110463	0.0467583	-0.0622677	0.020116	0.0511408	-0.019948	-0.0114855	-0.0937556	0.0589622	0.0742327	-0.0649055	0.12105	0.124055	0.0270253	-0.0540685	0.0141505	-0.0607779	0.0524564	-0.00447909	0.0377256	-0.0319936	-0.0140499	0.00820252	0.0843139	0.00132008	-0.168191	-0.0717609	-0.00709705	-0.143795	-0.0353295	0.00372777	-0.0329403	0.178774	0.0392179	-0.061191	-0.0780691	-0.051642	-0.00975118	0.124191	-0.0447621	-0.104026	-0.145018	-0.120598	-0.0582407	0.149928	0.00210527	0.0872353	0.091887	-0.0464395	-0.0182788	0.0274601	-0.0351732	-0.149443	-0.15368	-0.0115995	-0.0366414	-0.211506	0.0289482	0.070441	-0.135957	0.0556923	-0.137068	-0.141466	-0.0290805	-0.177855	0.136468	0.0863409	0.154133	0.0285215	-0.0072702	-0.142866	-0.0763615	0.136645	-0.143461	-0.0451513	0.0128813	-0.107533	-0.00875864	0.0759695	0.0651837	0.0496565	-0.120276	0.010616	-0.0651718	0.0539503	-0.104859	0.0416225	0.152647	0.012004	0.121883
flhd	-0.0217323	-0.0827752	0.0385992	0.00990385	0.0522975	0.0637764	-0.00558461	-0.082551	-0.0112569	-0.11589	-0.112848	0.0581569	-0.0750732	0.0209849	0.0550065	-0.026174	-0.017627	-0.0916573	0.0589757	0.0592154	-0.053633	0.129675	0.122966	0.0561032	-0.0549532	0.0132698	-0.0739751	0.0711554	-0.00134482	0.00967153	-0.0335959	-0.0216849	0.00770154	0.0649742	0.011842	-0.167456	-0.0755471	-0.018258	-0.139208	-0.0310134	0.0117055	-0.0374902	0.186729	0.037131	-0.0411901	-0.0617119	-0.0685687	-0.0102927	0.132213	-0.0420563	-0.117935	-0.125993	-0.10822	-0.0592188	0.150732	0.00970805	0.0743044	0.0954767	-0.0559376	-0.0154381	0.0339356	-0.0224711	-0.157849	-0.144641	-0.0179225	-0.049002	-0.215522	0.0326409	0.0570624	-0.114238	0.0289036	-0.134349	-0.125844	-0.0292061	-0.16721	0.15517	0.0972239	0.15425	0.0346792	-0.00452838	-0.156678	-0.0787642	0.147967	-0.154309	-0.0492882	0.0196878	-0.112459	-0.0146188	0.0718979	0.0575056	0.0664679	-0.10889	0.0256992	-0.0555612	0.0611515	-0.0998433	0.0385486	0.149889	-0.00405684	0.130561
xylr	-0.0198694	-0.0667908	0.082288	0.049393	-0.0787054	-0.0121312	0.0715092	0.059367	-0.0578352	0.126396	0.068453	-0.103632	0.0128633	-0.101256	-0.00791954	-0.081944	-0.00361025	0.0895137	0.0356458	0.029287	-0.0374856	0.0479016	-0.064628	-0.085691	0.157329	0.049412	0.0311603	0.00329607	-0.0216757	-0.0144503	0.0384674	0.0129483	-0.00891328	0.0326734	0.101599	0.199619	0.134768	-0.250055	0.0576487	-0.027711	-0.0617735	0.125996	-0.0451644	0.0303554	0.0296422	-0.0887854	0.111067	-0.0978988	0.0470934	0.0350724	-0.0433714	0.0420487	-0.0883766	0.0598666	0.0724424	-0.0731015	0.0569369	-0.00710766	-0.0954845	-0.0342433	-0.0287907	-0.112881	-0.131259	0.0124269	-0.0902616	-0.0570313	0.0729859	-0.0882982	-0.0194643	0.0738531	-0.0133157	0.0634595	-0.106096	0.0106761	0.214699	0.115355	0.181649	-0.0481816	-0.0090976	-0.174914	0.0257444	0.0141503	-0.0119292	0.0898507	0.0316413	-0.0794099	0.103473	0.0184767	-0.0320529	0.080556	-0.0178079	0.0225013	0.0712286	-0.0672356	-0.066139	-0.00564293	-0.0948818	-0.0600854	0.0556791	0.0123814
nikr	-0.0179179	0.0151849	0.0309378	0.0571523	-0.0251653	0.0252569	0.063779	0.100729	-0.0313577	-0.21431	-0.05945	-0.00548545	-0.176868	0.00619535	0.0517335	0.0323833	-0.0621108	-0.183351	0.0476045	-0.0391454	-0.0700304	-0.00784121	0.0454866	0.00835594	-0.110518	0.0774894	0.0213694	0.0909846	0.0243603	-0.013237	-0.029611	-0.0740403	0.0892082	-0.111026	-0.131027	0.0413343	-0.135853	0.00578141	-0.0519158	-0.111608	0.0189195	-0.0616719	0.100768	-0.0720028	-0.000930284	-0.116835	-0.103579	-0.0151798	0.0867777	0.0655254	-0.0482711	-0.0605714	-0.0179432	-0.000667587	0.00674211	0.0375983	0.131898	-0.0576997	-0.0978324	-0.108254	0.0320348	0.126702	-0.0716156	0.0311077	0.0780874	0.00528686	-0.1072	-0.0699064	-0.0119992	0.00555042	-0.151662	-0.0896792	-0.036431	0.0281736	0.0354625	-0.0359121	-0.122809	-0.0160246	-0.0998975	-0.00138259	-0.0533124	-0.0505545	0.0371801	-0.0111838	0.0721934	0.00520257	-0.0886527	0.0663011	-0.124739	0.0423512	0.110409	-0.0385611	-0.0464461	0.0216287	0.089976	-0.148028	0.16418	-0.021938	-0.0865374	0.033386
acrr	-0.0835419	0.0715431	-0.130803	-0.0519439	0.0660593	-0.0791661	0.0167233	0.168151	-0.113916	-0.0734243	0.0151366	-0.0118747	-0.170713	-0.0116454	-0.127748	0.0257912	0.0640182	-0.0520745	-0.104379	-0.0631068	0.0580724	0.0153183	-0.0197225	0.0892821	-0.143168	0.148824	0.0742959	-0.0131968	-0.181484	0.0652024	0.130696	0.00387316	0.174641	0.0298122	0.150968	0.0564163	-0.0819225	0.0454295	-0.0775119	-0.0573995	-0.0150906	0.0369308	-0.0860206	-0.0098676	0.145034	-0.0771033	-0.120798	-0.155866	-0.0781575	0.12627	-0.00928426	0.124159	-0.00701334	0.0397278	0.176508	4.70522e-05	0.145263	-0.00411201	-0.061141	-0.073509	-0.14858	-0.182884	-0.0684061	-0.0223429	-0.20295	-0.0450615	0.294942	0.0591298	0.00427326	-0.0956998	0.0411412	0.0836485	0.0414517	-0.072846	-0.0192618	0.0440992	0.035376	-0.0589092	-0.0503349	-0.249287	-0.100464	-0.0403022	0.034852	-0.0705441	-0.0084519	-0.129904	0.058451	-0.000885825	0.0741756	-0.0241826	0.0709403	0.0718789	0.0247052	-0.0116638	-0.298362	0.0846611	-0.0247666	-0.101541	-0.0514327	-0.0775734
metr	0.0538731	0.152254	0.00919628	0.0218686	-0.0487089	0.0803889	-0.0603963	-0.0795265	-0.0718268	-0.178407	-0.0673483	0.0798175	0.0158372	0.087629	-0.0204375	-0.0285116	-0.0103591	0.0821436	0.0962179	0.0167586	-0.0132609	-0.0586797	-0.0391442	-0.0385094	-0.0697734	-0.00381304	0.0674968	-0.0755794	0.0746079	-0.0478185	-0.0253594	0.0364292	0.0129093	-0.149257	0.035958	0.181555	-0.16467	0.0421258	-0.010242	0.162416	-0.0684285	0.0982771	0.106094	-0.210695	0.251462	0.0818084	0.0975726	0.00448849	-0.0804034	0.0289418	-0.00341922	-0.0327564	0.0466787	0.0359041	-0.000993677	0.0175183	-0.0289648	-0.101356	-0.0418215	0.0582956	-0.0302317	0.0335781	-0.0537016	0.238759	-0.00328858	0.00896014	0.0417412	0.115316	0.0902497	-0.0490953	-0.00686669	-0.0402566	0.0259249	-0.0119913	0.0460559	0.0454186	1.44292e-05	0.0609509	-0.0743738	-0.0668595	0.0880224	-0.0522625	0.106896	-0.0170834	-0.0508468	0.0265877	-0.161515	0.075532	-0.0546236	-0.0293022	-0.0968775	0.00842142	0.0515921	-0.0936566	-0.117247	0.161386	0.023374	0.216629	-0.000830768	-0.0933129
gada	-0.165108	-0.19081	0.182154	0.0943787	0.000336984	-0.0433163	0.00642745	-0.0323472	-0.0291367	-0.035856	0.0664612	-0.0275604	-0.0852354	-0.0601661	-0.100182	-0.184931	-0.0517435	0.00633653	-0.016079	0.0210795	0.0942753	0.0528031	0.0352232	-0.085119	0.168338	-0.15035	-0.108364	0.0100197	-0.081727	-0.111955	-0.00879878	0.0490165	0.069681	0.00676682	-0.112826	-0.104831	-0.0749165	-0.0818701	-0.0508853	0.0381519	-0.0528253	-0.0773356	-0.0181387	0.00850834	0.0746581	0.0777223	0.0793568	-0.201467	-0.0194498	-0.258843	-0.0266688	-0.00449282	-0.000242034	-0.088705	-0.0235477	0.143856	0.124705	0.0377622	-0.00778251	0.0334201	0.0419554	-0.0632359	0.0193307	0.0449612	0.0925291	0.0821543	0.0633926	0.0334141	0.013854	-0.144888	-0.0164739	0.0321759	0.0121941	0.00206076	-0.152065	0.06993	-0.0242674	-0.0377176	0.17258	-0.0438075	0.0205763	-0.15327	-0.0598328	0.116192	0.0601069	0.105853	-0.0543709	0.00850545	0.032008	0.00176056	-0.0613383	0.000693164	0.0181898	0.00865298	-0.0251949	-0.048111	0.0461492	-0.0642729	0.0252597	-0.00968373
ada	-0.0253863	0.0223029	0.0652089	-0.0968781	-0.0942421	0.0896854	0.0734777	-0.100724	0.0131256	0.0116585	-0.0681084	-0.0103599	-0.0212149	-0.00192918	0.0153829	0.074829	-0.183039	-0.0118481	-0.0743088	0.0717993	-0.00941641	0.0949951	0.0450365	0.00799333	-0.0565809	-0.0288067	0.0188255	0.105268	0.0927708	0.0217483	0.0171337	-0.0981226	0.0440933	0.0980009	-0.127116	-0.0101709	-0.102981	0.00520547	0.00299775	-0.0150887	0.0460105	0.0536814	0.106902	-0.0576651	-0.0434271	0.0478774	-0.0517414	-0.0554371	-0.0566442	0.0515882	-0.02685	-0.0526062	-0.00601592	0.0140787	-0.0794323	-0.048873	-0.103712	0.0265245	0.111177	0.0180793	0.00961238	-0.113363	-0.0512804	0.0159129	-0.0418129	0.101235	0.122951	-0.0606208	-0.0644318	-0.197349	-0.0122756	0.0433454	-0.0180407	-0.237411	0.0914282	0.0417897	-0.096106	-0.0633723	-0.0108031	-0.0165132	0.0307798	-0.0896465	-0.136755	0.0689181	0.0839333	-0.139411	0.00471863	0.0530982	0.0277414	-0.0155125	-0.086543	0.0746705	-0.0563641	-0.0691742	-0.103468	0.0877212	-0.0319594	0.14152	0.12866	-0.0405862
iclr	0.0211959	-0.0149759	-0.0254896	0.0194799	-0.0602589	-0.110901	0.0418506	-0.0148655	0.00891473	-0.0295465	-0.116251	-0.0524745	-0.0174405	-0.107476	0.0427456	0.0448876	0.168148	-0.172603	-0.0578606	-0.140051	-0.0690732	-0.0406956	-0.184523	0.0510636	0.0554818	-0.0516087	-0.0885389	-0.159154	-0.156861	-0.0110609	-0.0288374	0.0851138	-0.0392176	-0.0240341	-0.0141156	0.0535347	-0.170029	0.0132739	-0.196896	-0.19621	0.0250983	-0.0151027	0.0282913	0.0855059	-0.260701	0.0727383	0.0182971	0.00687277	0.0585827	-0.0102361	-0.04285	0.0315772	-0.0364623	0.0596793	-0.0318302	-0.059942	0.00610231	0.00704088	0.209446	0.031025	-0.068586	0.10376	0.000739998	-0.165317	0.119932	0.0276676	-0.147565	-0.0319071	-0.0502776	-0.0981792	-0.0595625	-0.0767216	0.119369	0.0414302	-0.0146184	0.1743	0.00745353	0.0205856	0.0124757	-0.0354545	-0.0566462	0.0668192	0.081758	-0.180248	-0.0626842	-0.041545	0.0736145	-0.168242	-0.172245	-0.0682079	-0.0290009	0.0615601	-0.147632	-0.0584413	-0.0354024	-0.0541103	-0.0703867	0.0762861	0.0361369	-0.0280065
mdte	-0.0951094	-0.172912	-0.0457858	0.0314006	0.00563991	0.0581442	-0.0316711	0.0446134	0.0517423	0.0466193	0.00705948	0.108122	0.0673097	-0.00203499	-0.0105782	-0.21227	-0.00755596	0.128155	-0.0227117	-0.0256352	-0.0144169	0.0461293	0.0643818	-0.00699263	0.0425736	-0.0318198	-0.0372206	0.0550994	-0.0611633	-0.125906	0.0614613	0.0470442	0.0138185	0.0955388	0.141062	0.00752889	-0.0147294	-0.0462559	0.038892	0.0395039	0.00758308	0.02074	0.0261779	-0.00127827	-0.0934354	-0.0614652	-0.0371462	0.00246205	0.0956406	-0.00822572	-0.101112	-0.106809	-0.075512	0.0541742	0.141715	0.0188818	0.132816	0.129204	-0.0423293	0.0570823	0.0699948	0.0789751	0.060307	-0.270524	-0.0848064	-0.0371791	-0.18306	-0.0433292	0.0196221	-0.0504427	0.165624	0.00752244	-0.0355483	-0.0338485	-0.108653	0.139853	0.0556009	-0.0575987	0.00934247	-0.0404495	-0.0951013	-0.012044	-0.039273	-0.112123	-0.0220541	0.0592646	-0.10472	0.144189	-0.062524	0.00171639	0.00583872	-0.0568048	0.085804	0.0270943	0.010838	-0.0385789	0.0408478	0.0847269	0.0382102	0.0199927
mdtf	-0.0746068	-0.165547	-0.0685892	0.0367714	-0.00917831	0.0602397	-0.0286989	0.0762676	0.0478798	0.0603371	0.00955279	0.105637	0.0656552	-0.0137905	0.00668478	-0.229433	-0.00377531	0.124724	-0.0113736	-0.0309598	-0.0316478	0.0284959	0.0734232	-0.000413153	0.0533315	-0.0209305	-0.0438675	0.0529967	-0.0877795	-0.134504	0.0695987	0.0392354	0.00517742	0.0798353	0.145793	0.0155453	-0.007553	-0.0307228	0.0319128	0.0377931	0.0193698	0.0281819	0.0387706	-0.00494987	-0.0796312	-0.0653082	-0.0441418	0.00719115	0.0873743	0.00763196	-0.0746444	-0.0930971	-0.0900248	0.0569309	0.151542	-0.00906456	0.144236	0.139408	-0.0487996	0.0765285	0.0719743	0.0893723	0.0665942	-0.264558	-0.0841326	-0.0544711	-0.192193	-0.0414375	0.0310688	-0.0375539	0.155778	0.0475277	-0.0387139	-0.0455121	-0.0929589	0.170957	0.040101	-0.0828764	0.0159825	-0.052836	-0.0959997	-0.0219293	-0.052299	-0.104411	-0.0228436	0.0685559	-0.111779	0.155773	-0.0496038	0.0265334	0.00862436	-0.0695287	0.0876003	0.0270264	0.00705751	-0.0317153	0.0226788	0.08547	0.0559254	0.0262794
cecr	0.00855381	0.136931	0.00164368	-0.0319654	0.0255227	0.0551236	0.00547648	-0.0806201	-0.150335	-0.126501	0.0338013	0.113257	0.018775	-0.00705678	0.0691239	0.106359	-0.0278938	-0.0352793	-0.0499835	0.0833467	0.0687487	0.00296929	0.0330943	0.108937	0.071381	0.0977992	-0.105829	0.081728	-0.0486303	0.0273983	-0.0601093	-0.114174	-0.0546522	-0.00462868	-0.0508905	-0.116293	-0.154288	0.0656997	0.0769638	0.0270307	-0.123011	-0.0460579	0.12995	-0.0748824	0.0148161	0.0852017	4.27694e-05	-0.182254	0.035165	-0.0373357	-0.0898049	0.0316783	0.0270339	0.106602	-0.0079749	-0.0261329	-0.0335044	-0.0983042	0.0667668	-0.0131544	0.0154379	-0.150873	-0.0706991	0.0338283	-0.0104484	-0.0420411	-0.126475	-0.0163009	0.0193368	-0.0459065	-0.0325315	-0.0557867	-0.113601	0.132258	-0.0903241	0.0378588	-0.0132626	-0.0408601	0.024546	0.0414092	-0.0102878	-0.034877	-0.0802263	0.0887811	-0.0981384	-0.0246027	-0.0741138	-0.126823	0.0630183	-0.00285179	0.139985	0.131656	-0.162361	-0.00988174	-0.0795709	-0.0532732	-0.137575	0.00374589	-0.023974	0.0759336
hdfr	-0.0995489	0.000117048	0.0222931	0.140945	-0.0643076	-0.156309	0.00153936	0.164103	0.115523	-0.00493156	-0.15859	0.032951	0.0823435	-0.0728611	0.0838335	-0.0737877	0.0590848	-0.11868	-0.0421785	-0.0560715	-0.0820358	0.0792742	0.142885	0.0228203	0.068954	0.147479	0.0172972	-0.125812	0.0186557	0.0506991	0.0867739	0.0534138	-0.00505553	-0.00579563	-0.0502837	-0.149388	-0.0352104	0.0241029	-0.171836	0.0103901	-0.0358412	-0.0235736	0.0427396	0.00774479	-0.171366	0.0479035	-0.0834232	-0.0315853	0.136915	0.0443029	-0.000282518	-0.0165937	-0.0958162	0.0133509	0.105355	0.0197178	0.12553	0.188361	-0.0784992	-0.0651171	-0.0900574	0.14737	0.0629935	-0.192028	0.0440388	0.000898389	-0.180597	0.119175	0.0182898	-0.0995416	-0.00169072	-0.105191	0.102724	0.163416	-0.0734046	0.239914	-0.0922394	-0.0652348	-0.0475267	-0.0276429	0.00429423	-0.118336	-0.083274	0.140301	-0.102123	0.122546	0.0603491	0.138909	0.0302703	0.144992	-0.0300646	-0.0972301	0.202988	-0.00134169	0.074452	-0.0402259	-0.0534126	-0.00902474	-0.0232558	0.056532
gltd	0.0139324	-0.0925092	-0.0430734	-0.0784851	0.00422047	-0.000687545	-0.201038	-0.126619	0.2319	0.0444186	-0.0494717	-0.139132	-0.0187735	0.00925281	-0.10502	-0.132564	0.0289387	0.131407	0.0468878	0.100848	0.0676029	0.0556808	-0.146817	-0.137155	-0.118736	-0.0858096	-0.0895373	-0.034525	-0.149578	-0.0496514	-0.0594121	-0.0719825	-0.0754913	0.0814591	0.0928821	0.0458626	-0.0789138	-0.0261151	0.0821474	0.0426809	0.0255509	0.0496297	0.0588507	0.0313393	-0.0253364	-0.0486754	0.0307644	-0.0748176	0.00638761	-0.00529475	-0.0545703	-0.0802451	-0.104959	-0.055625	0.0670278	0.0106457	0.020594	0.0194584	-0.0887035	0.0910346	-0.0616999	0.0204854	-0.278434	-0.0609907	-0.127652	0.00426653	-0.00810907	-0.0374824	-0.096426	-0.132385	0.143329	0.114204	-0.122053	-0.0191309	-0.105735	0.0145577	0.0046327	0.0755708	0.0279447	0.0416821	-0.100494	-0.00957072	-0.0622812	-0.0802736	-0.00182938	-0.157862	-0.0311958	0.0383817	0.128994	0.0153637	0.0878154	-0.145314	0.0141696	-0.00831397	0.0404499	-0.00574504	-0.0639458	0.0806855	0.122028	0.014918
pdhr	0.0026734	0.0124812	0.0357325	0.0274039	-0.0220267	0.0337887	-0.0949363	-0.0509548	-0.0632035	-0.0286436	0.00282635	-0.0700816	0.0439435	-0.0663565	0.0284247	0.298344	-0.105596	-0.0563265	-0.0875587	-0.028323	0.0775127	0.05347	0.0960245	0.113542	-0.0800191	0.0703516	0.00921999	-0.139485	-0.0759136	0.0576144	0.105593	0.0594634	0.0269367	-0.0840509	-0.00392875	-0.0602297	0.101754	0.0500169	0.0731782	-0.0712859	-0.00188444	-0.0838399	-0.0672925	-0.108216	0.138065	-0.10949	-0.1007	0.00830355	-0.0581459	0.00755529	-0.0429617	-0.030889	0.114164	-0.0081674	0.0491734	-0.106575	0.0573702	-0.0414345	-0.0263854	-0.0636677	0.103424	-0.0281819	-0.116419	-0.0297254	-0.0354978	0.0190481	-0.0543323	-0.0673173	-0.00312433	0.0767631	-0.00593732	0.0488526	-0.13316	-0.0610908	0.0745683	-0.10937	0.234609	-0.0866894	0.00584159	0.000806194	0.0237827	0.000788588	-0.00721103	0.00946214	-0.0151122	-0.0210246	-0.0517849	-0.0831464	0.0118257	-0.0166525	0.0497888	-0.101707	-0.167459	0.0882536	-0.041852	-0.0185978	0.0459629	-0.174542	-0.0188269	0.0640111
gltf	0.00605374	-0.0912687	-0.0254261	-0.0951874	0.00534663	0.0227708	-0.212808	-0.141929	0.244601	0.0438714	-0.0295442	-0.157766	-0.00787993	0.00491391	-0.0903955	-0.136014	-0.00260556	0.124465	0.0491334	0.0863658	0.0719873	0.0421153	-0.142263	-0.155991	-0.103021	-0.0888636	-0.0610785	-0.0271094	-0.109964	-0.0141313	-0.0702568	-0.043929	-0.0843831	0.116705	0.0854265	0.0447031	-0.0801873	-0.0376313	0.0835828	0.0495117	0.0523236	0.0373964	0.0636744	0.0276854	-0.00594431	-0.0440263	0.0493906	-0.093271	-0.028264	-0.0133008	-0.0659421	-0.0533398	-0.0855328	-0.0489122	0.0503288	0.0136379	0.0212315	-0.00520382	-0.0938121	0.0848142	-0.0783864	0.00202553	-0.274536	-0.0624328	-0.118427	-0.00327726	0.00636484	-0.0341164	-0.0884376	-0.1207	0.140578	0.0891844	-0.11416	-0.0183513	-0.112388	0.00163623	-0.00522741	0.0727426	0.0479126	0.0196354	-0.10334	-0.0241241	-0.0540258	-0.0515597	0.0222298	-0.152688	-0.0357466	0.0280498	0.109909	0.0308426	0.0764088	-0.1318	0.0253401	-0.00925415	0.0262737	-0.00636744	-0.0680483	0.0827051	0.108819	0.00964956
gltb	-0.00309026	-0.0949756	-0.029239	-0.0804178	-0.00654935	-0.000722745	-0.20258	-0.131967	0.233125	0.0504739	-0.0307028	-0.147932	-0.00923004	0.0136114	-0.101012	-0.139897	0.00645272	0.121717	0.0492578	0.0920953	0.0683536	0.0412583	-0.148284	-0.14455	-0.100578	-0.110774	-0.07822	-0.0315773	-0.120166	-0.0224554	-0.0687972	-0.0458931	-0.0782746	0.106025	0.0716635	0.0367079	-0.0691182	-0.0167533	0.0792691	0.0329703	0.0304318	0.0274444	0.047744	0.0374398	0.00725464	-0.0471626	0.0324736	-0.0954481	-0.00719348	-0.034208	-0.0566221	-0.0647519	-0.0871164	-0.0718485	0.0561992	0.0281539	0.0132553	0.0208843	-0.0900753	0.0770911	-0.066262	0.00785873	-0.277326	-0.0626301	-0.13362	0.0022188	-0.00610256	-0.0329876	-0.093072	-0.136617	0.135718	0.0788929	-0.126136	-0.00976218	-0.1156	-0.00428354	-0.012065	0.070091	0.0602191	0.0262465	-0.0976392	-0.00564984	-0.0576907	-0.0666385	0.0221675	-0.142387	-0.0262981	0.0194989	0.11527	0.0164757	0.089741	-0.149636	0.019705	-0.00944888	0.0417413	0.0163293	-0.0631324	0.0598783	0.100839	0.0245867
gals	-0.00695169	0.0316232	0.108732	-0.0014651	0.0322262	0.105116	0.0240041	0.0351368	-0.0748845	-0.0226761	-0.0240612	-0.0889766	-0.0505352	0.0256828	0.0449194	0.0117032	0.0258719	-0.0132397	0.00401522	-0.0503956	-0.107231	0.059591	0.0416187	-0.0538347	-0.0586008	0.0164851	0.102313	0.052248	0.0421099	0.1797	0.0631271	0.00169087	-0.0445272	0.0616105	-0.0909092	0.0776614	0.0112598	0.00927884	0.0359862	0.0383478	0.102069	0.0203714	0.0750269	-0.0322586	0.0110007	-0.0114772	-0.0454184	0.0339872	0.00761481	-0.0303721	-0.0661419	-0.094337	-0.117192	-0.107735	0.114117	-0.0559233	0.147493	0.0547139	-0.0326358	0.0115023	-0.0122016	0.128558	0.047313	0.0162811	-0.101458	0.0719899	-0.0528178	-0.0360372	0.00560141	-0.0211739	0.00145808	0.0103416	0.105461	-0.0546388	-0.0361303	-0.0197465	0.0263234	-0.019361	0.0378413	-0.0573842	-0.0525014	-0.0261631	-0.00189939	-0.0212792	0.0602074	-0.0199726	-0.0416957	0.10759	-0.0783556	-0.0966493	-0.0473494	0.00782031	-0.0322702	-0.00684963	-0.0145963	0.0446847	0.0583967	0.0194843	-0.0185991	-0.0665407
melr	-0.0561841	0.100411	-0.0775884	-0.0615223	0.0779803	0.0186545	-0.0158403	-0.00566271	-0.00590041	0.0237081	-0.105454	-0.168738	-0.121742	0.0526097	0.0125271	-0.00351196	0.0166166	-0.037129	0.0819517	-0.0194679	0.0385029	-0.0161879	0.0354587	0.07872	-0.0544293	0.0514599	-0.020527	-0.113927	0.0100666	0.103446	-0.0959721	-0.161984	0.0393735	-0.0207761	0.0350337	-0.0567301	-0.0150311	-0.207995	-0.0533947	0.0709673	-0.00669944	0.050762	0.135571	-0.136869	0.0507559	0.102649	0.0201488	-0.0920235	0.0608252	0.023945	0.0263997	-0.0320938	-0.1716	0.132904	-0.00426658	-0.0409936	0.0880429	-0.0922125	-0.0128612	-0.115123	-0.0746703	-0.0119846	-0.0129477	0.106756	0.0111362	0.0843185	0.113392	-0.0838926	0.0127414	-0.0358404	-0.123054	-0.0165433	-0.106404	-0.022472	0.0157343	-0.0273405	0.0165415	-0.11224	0.074929	-0.0419673	0.0227393	-0.0732031	0.0825112	-0.0572972	-0.0794032	-0.0985389	0.124706	-0.0379256	-0.00210452	-0.00368964	0.0224657	0.00238234	-0.0409399	-0.0193154	0.0594559	0.0288711	-0.0380476	-0.186922	-0.0594854	-0.0297776
gadb	-0.1003	-0.192076	0.0749419	0.0620422	0.0352435	-0.0273936	-0.027855	-0.00770964	0.0968654	-0.0689075	0.0744696	0.00901435	-0.00121419	-0.016857	-0.0587356	-0.21069	0.101759	0.0175945	0.0224674	0.0428932	0.05527	0.0242677	-0.0619733	-0.107742	0.070606	-0.164401	-0.151438	-0.0230654	-0.0864802	-0.170076	-0.0815985	-0.00435613	0.089054	0.0602218	0.0497937	-0.0995846	-0.0580263	0.00296766	-0.014831	0.00715297	-0.0631963	0.0334922	0.0125157	-0.0242299	-0.073005	0.0053243	0.0845838	0.0274502	0.105745	-0.151071	-0.0810831	-0.0746296	-0.0969437	0.0151862	-0.0579069	0.129539	0.0179788	-0.047098	0.02345	0.0854149	0.0715117	-0.0158013	0.0817386	-0.0151802	-0.0198016	0.0748853	0.0693588	0.0767997	0.020485	-0.0983747	0.0774503	0.04087	-0.0841469	-0.109403	-0.167695	0.0979201	0.0652227	-0.0108577	0.0896183	-0.0123501	-0.0826863	-0.075951	-0.0638186	0.0766844	0.0145986	0.000971361	0.0623198	0.0773228	0.0661079	-0.0479664	-0.0959255	-0.0914116	-0.0225185	0.0108561	0.076407	-0.081616	0.0261886	0.0143133	0.132365	-0.0254416
gadc	-0.104841	-0.216732	0.0555295	0.0603148	0.0334775	-0.0167067	-0.0415507	-0.0169683	0.0985235	-0.0186126	0.0677332	0.00791027	-0.0111017	0.00214608	-0.0670693	-0.202997	0.0938317	0.0223955	0.0460867	0.0458915	0.0598871	0.0226746	-0.0707803	-0.140255	0.0812476	-0.142128	-0.15426	-0.0233943	-0.0938082	-0.17317	-0.0807296	-0.0293445	0.0763316	0.0565347	0.038402	-0.0942742	-0.0327029	0.015542	0.00484785	0.0237316	-0.0659847	0.0250308	0.0157527	-0.0128458	-0.0574547	0.00761716	0.102651	0.0260168	0.0725577	-0.165849	-0.0558182	-0.0938721	-0.105018	-0.0211876	-0.0305012	0.128549	0.0335925	-0.063437	0.0211105	0.107974	0.0795255	-0.00451039	0.0634916	-0.00717002	0.00184408	0.0745234	0.0688459	0.0648803	0.0198301	-0.12855	0.0766027	0.0603578	-0.0831856	-0.114718	-0.167604	0.060941	0.066175	0.00792512	0.0918134	0.00109668	-0.0858835	-0.0737806	-0.0533667	0.075061	0.0264586	0.0225653	0.0417435	0.0534881	0.0621441	-0.0393154	-0.0800318	-0.10215	-0.0239916	-0.00814335	0.0780341	-0.093408	0.0344869	0.00680133	0.131785	-0.0139776
